{"learner":{"attributes":{"best_iteration":"65","best_score":"26.969705011544754"},"feature_names":[],"feature_types":[],"gradient_booster":{"model":{"cats":{"enc":[],"feature_segments":[],"sorted_idx":[]},"gbtree_model_param":{"num_parallel_tree":"1","num_trees":"116"},"iteration_indptr":[0,1,2,3,4,5,6,7,8,9,10,11,12,13,14,15,16,17,18,19,20,21,22,23,24,25,26,27,28,29,30,31,32,33,34,35,36,37,38,39,40,41,42,43,44,45,46,47,48,49,50,51,52,53,54,55,56,57,58,59,60,61,62,63,64,65,66,67,68,69,70,71,72,73,74,75,76,77,78,79,80,81,82,83,84,85,86,87,88,89,90,91,92,93,94,95,96,97,98,99,100,101,102,103,104,105,106,107,108,109,110,111,112,113,114,115,116],"tree_info":[0,0,0,0,0,0,0,0,0,0,0,0,0,0,0,0,0,0,0,0,0,0,0,0,0,0,0,0,0,0,0,0,0,0,0,0,0,0,0,0,0,0,0,0,0,0,0,0,0,0,0,0,0,0,0,0,0,0,0,0,0,0,0,0,0,0,0,0,0,0,0,0,0,0,0,0,0,0,0,0,0,0,0,0,0,0,0,0,0,0,0,0,0,0,0,0,0,0,0,0,0,0,0,0,0,0,0,0,0,0,0,0,0,0,0,0],"trees":[{"base_weights":[1.556013E-1,5.3483753E1,-5.2022213E1,8.052591E1,2.7069471E1,-2.529025E1,-7.790941E1,9.860274E1,6.832253E1,4.1291134E1,1.4879087E1,-1.2079384E1,-3.866347E1,-6.489868E1,-9.10583E1,1.7031917E2,9.536975E1,7.680599E1,5.5936077E1,4.772567E1,2.6871803E1,6.872818E0,2.166426E1,-5.18617E0,-1.870828E1,-3.3157867E1,-4.541261E1,-5.8040237E1,-7.120761E1,-4.204266E0,-9.7159164E1,6.6350503E0,1.9152176E2,7.2475685E1,1.0198889E2,6.8381386E1,9.427646E1,5.104556E1,7.0596054E1,6.337492E1,4.1447453E1,2.0117123E1,3.5601685E1,-8.917241E0,9.184778E0,1.6368065E1,4.0569286E1,-1.7213597E0,-1.7103987E1,-3.1609444E1,-1.6002914E1,-4.3057472E1,-3.0742174E1,-5.3695873E1,-4.2413223E1,-3.2101724E0,-5.5904873E1,-6.740276E1,-3.7217388E0,-4.66332E0,-5.014283E0,1.0577026E1,7.1098495E0,3.3435605E0,5.744781E0,4.0808663E0,5.344726E0,5.485165E0,3.2894788E0,5.2452364E0,2.5817451E0,2.1542509E0,3.5664601E0,2.9365156E0,4.3420634E0,2.039374E0,4.4441233E0,1.8108723E0,2.7644432E0,2.74735E0,9.164529E-1,1.1141843E0,2.0538654E0,-2.354958E-1,-1.3911142E0,5.1388705E-1,-7.852365E-1,3.93485E0,7.643499E-1,2.6161487E0,-1.1460214E-1,1.4643352E0,-1.2832505E-1,8.358141E-1,-9.41729E-1,-1.2472619E0,-1.7674452E0,-3.9635587E-2,-8.796682E-1,-1.5106648E0,-2.2066648E0,-9.477768E-1,-1.6255983E0,-2.7034397E0,-1.4877673E0,-1.620285E0,-2.2299838E0,-2.2694557E0,-2.8472145E0,-9.673546E-1,-3.3737628E0],"categories":[],"categories_nodes":[],"categories_segments":[],"categories_sizes":[],"default_left":[0,0,0,0,0,0,0,0,0,0,0,0,0,0,0,0,0,0,0,0,0,0,0,0,0,0,0,0,0,0,0,0,0,0,0,0,0,0,0,0,0,0,0,0,0,0,0,0,0,0,0,0,0,0,0,0,0,0,0,0,0,0,0,0,0,0,0,0,0,0,0,0,0,0,0,0,0,0,0,0,0,0,0,0,0,0,0,0,0,0,0,0,0,0,0,0,0,0,0,0,0,0,0,0,0,0,0,0,0,0,0],"id":0,"left_children":[1,3,5,7,9,11,13,15,17,19,21,23,25,27,29,31,33,35,37,39,41,43,45,47,49,51,53,55,57,-1,59,-1,61,63,65,67,69,71,73,75,77,79,81,83,85,87,89,91,93,95,97,99,101,103,105,-1,107,109,-1,-1,-1,-1,-1,-1,-1,-1,-1,-1,-1,-1,-1,-1,-1,-1,-1,-1,-1,-1,-1,-1,-1,-1,-1,-1,-1,-1,-1,-1,-1,-1,-1,-1,-1,-1,-1,-1,-1,-1,-1,-1,-1,-1,-1,-1,-1,-1,-1,-1,-1,-1,-1],"loss_changes":[3.4962696E7,4.436476E6,4.39302E6,6.70498E5,5.446265E5,5.5180925E5,5.45984E5,2.70102E5,1.88631E5,1.3334375E5,9.193019E4,7.182595E4,5.62005E4,6.618E4,5.9982E4,1.606025E4,1.72031E5,1.5354E5,5.01675E4,9.581925E4,2.5819219E4,2.852007E4,9.115031E4,3.1890031E4,2.7485875E4,1.9218875E4,1.4989625E4,6.729E3,5.322E3,0E0,9.67E2,0E0,5.29625E2,5.626925E4,8.2816E4,7.17145E4,1.5365825E5,8.8318125E4,3.0560688E4,1.605775E5,4.9974E4,1.49360625E4,1.3304906E4,7.8229272E3,1.865964E4,4.7177125E4,1.0087569E5,1.5798881E4,1.049891E4,2.5572344E3,1.6073094E4,9.6040625E2,1.38605E4,7.125E0,9.8234375E3,0E0,3.864125E3,7.775E1,0E0,0E0,0E0,0E0,0E0,0E0,0E0,0E0,0E0,0E0,0E0,0E0,0E0,0E0,0E0,0E0,0E0,0E0,0E0,0E0,0E0,0E0,0E0,0E0,0E0,0E0,0E0,0E0,0E0,0E0,0E0,0E0,0E0,0E0,0E0,0E0,0E0,0E0,0E0,0E0,0E0,0E0,0E0,0E0,0E0,0E0,0E0,0E0,0E0,0E0,0E0,0E0,0E0],"parents":[2147483647,0,0,1,1,2,2,3,3,4,4,5,5,6,6,7,7,8,8,9,9,10,10,11,11,12,12,13,13,14,14,15,15,16,16,17,17,18,18,19,19,20,20,21,21,22,22,23,23,24,24,25,25,26,26,27,27,28,28,30,30,32,32,33,33,34,34,35,35,36,36,37,37,38,38,39,39,40,40,41,41,42,42,43,43,44,44,45,45,46,46,47,47,48,48,49,49,50,50,51,51,52,52,53,53,54,54,56,56,57,57],"right_children":[2,4,6,8,10,12,14,16,18,20,22,24,26,28,30,32,34,36,38,40,42,44,46,48,50,52,54,56,58,-1,60,-1,62,64,66,68,70,72,74,76,78,80,82,84,86,88,90,92,94,96,98,100,102,104,106,-1,108,110,-1,-1,-1,-1,-1,-1,-1,-1,-1,-1,-1,-1,-1,-1,-1,-1,-1,-1,-1,-1,-1,-1,-1,-1,-1,-1,-1,-1,-1,-1,-1,-1,-1,-1,-1,-1,-1,-1,-1,-1,-1,-1,-1,-1,-1,-1,-1,-1,-1,-1,-1,-1,-1],"split_conditions":[-2.2579739E-2,-8.9533347E-1,8.5286427E-1,-1.3947669E0,-4.9401078E-1,4.2163104E-1,1.2979279E0,-1.7296532E0,-5.273565E-1,-3.229508E-1,3.7092653E-1,1.9406126E-1,6.644817E-1,1.0680661E0,1.500097E0,-9.039604E-1,2.0582119E-1,-8.199437E-1,6.7347944E-1,6.081002E-1,4.587916E-1,-5.4350305E-1,-4.1893345E-1,1.2808296E-1,-6.3017744E-1,-4.5860225E-1,-4.2948136E-1,-3.6631727E-1,1.176006E0,-4.204266E0,1.6061213E0,6.6350503E0,-6.860905E-1,6.989201E-1,-5.9963673E-1,6.1193043E-1,-3.0263674E-1,4.67451E-1,1.0266241E-1,5.875266E-1,1.221846E-1,-4.9378508E-1,-9.5459825E-1,5.761443E-1,3.328253E-1,1.3912363E-1,-1.3017203E-1,-1.725177E0,-1.4456854E0,2.2165552E-1,-4.2971858E-1,-5.239248E-1,-3.51398E-1,1.5054221E0,-1.8131018E-1,-3.2101724E0,-2.3899497E-1,-2.554586E0,-3.7217388E0,-4.66332E0,-5.014283E0,1.0577026E1,7.1098495E0,3.3435605E0,5.744781E0,4.0808663E0,5.344726E0,5.485165E0,3.2894788E0,5.2452364E0,2.5817451E0,2.1542509E0,3.5664601E0,2.9365156E0,4.3420634E0,2.039374E0,4.4441233E0,1.8108723E0,2.7644432E0,2.74735E0,9.164529E-1,1.1141843E0,2.0538654E0,-2.354958E-1,-1.3911142E0,5.1388705E-1,-7.852365E-1,3.93485E0,7.643499E-1,2.6161487E0,-1.1460214E-1,1.4643352E0,-1.2832505E-1,8.358141E-1,-9.41729E-1,-1.2472619E0,-1.7674452E0,-3.9635587E-2,-8.796682E-1,-1.5106648E0,-2.2066648E0,-9.477768E-1,-1.6255983E0,-2.7034397E0,-1.4877673E0,-1.620285E0,-2.2299838E0,-2.2694557E0,-2.8472145E0,-9.673546E-1,-3.3737628E0],"split_indices":[24,24,24,24,24,24,24,24,131,131,114,24,24,24,24,130,114,116,138,135,116,114,138,99,143,120,143,122,24,0,24,0,92,95,143,167,146,170,166,134,122,136,122,99,114,134,24,98,98,95,122,130,123,102,122,0,122,186,0,0,0,0,0,0,0,0,0,0,0,0,0,0,0,0,0,0,0,0,0,0,0,0,0,0,0,0,0,0,0,0,0,0,0,0,0,0,0,0,0,0,0,0,0,0,0,0,0,0,0,0,0],"split_type":[0,0,0,0,0,0,0,0,0,0,0,0,0,0,0,0,0,0,0,0,0,0,0,0,0,0,0,0,0,0,0,0,0,0,0,0,0,0,0,0,0,0,0,0,0,0,0,0,0,0,0,0,0,0,0,0,0,0,0,0,0,0,0,0,0,0,0,0,0,0,0,0,0,0,0,0,0,0,0,0,0,0,0,0,0,0,0,0,0,0,0,0,0,0,0,0,0,0,0,0,0,0,0,0,0,0,0,0,0,0,0],"sum_hessian":[1.2563E4,6.213E3,6.35E3,3.069E3,3.144E3,3.125E3,3.225E3,1.234E3,1.835E3,1.45E3,1.694E3,1.573E3,1.552E3,1.624E3,1.601E3,5.1E1,1.183E3,1.086E3,7.49E2,1.001E3,4.49E2,7.78E2,9.16E2,7.72E2,8.01E2,8.58E2,6.94E2,7.83E2,8.41E2,7.54E2,8.47E2,2.1E1,3E1,2.68E2,9.15E2,7.36E2,3.5E2,5.65E2,1.84E2,2.84E2,7.17E2,2.55E2,1.94E2,9.9E1,6.79E2,7.17E2,1.99E2,5.99E2,1.73E2,1.37E2,6.64E2,1.65E2,6.93E2,1.8E2,5.14E2,1.94E2,5.89E2,3.96E2,4.45E2,3.91E2,4.56E2,1.9E1,1.1E1,2.39E2,2.9E1,1.81E2,7.34E2,4.1E1,6.95E2,2.79E2,7.1E1,4.08E2,1.57E2,1.09E2,7.5E1,1.52E2,1.32E2,5.23E2,1.94E2,1.1E1,2.44E2,5.8E1,1.36E2,8.2E1,1.7E1,6.51E2,2.8E1,1.1E1,7.06E2,1.56E2,4.3E1,1.5E1,5.84E2,8E0,1.65E2,5.2E1,8.5E1,6.3E1,6.01E2,1.5E1,1.5E2,9.2E1,6.01E2,1.76E2,4E0,9.5E1,4.19E2,5.7E1,5.32E2,1E0,3.95E2],"tree_param":{"num_deleted":"0","num_feature":"193","num_nodes":"111","size_leaf_vector":"1"}},{"base_weights":[1.3283442E-1,2.8092747E1,-6.022866E1,4.4524773E1,5.369986E0,-3.5298428E1,-7.7478775E1,4.9642975E1,-1.304812E1,1.4206176E1,-3.9805153E1,-2.6072578E1,-6.0588554E1,-6.43712E1,-8.6737625E1,6.4072525E1,4.192003E1,6.6017704E0,-2.421588E1,3.0321384E1,5.2211056E0,-2.991481E1,-5.0425964E1,-4.0837616E1,-1.3241789E1,-5.4382843E1,-7.105773E1,-6.0314476E1,-7.5668495E1,-8.116907E1,-4.607433E0,7.240721E1,4.3897495E1,6.1847794E1,3.1683363E1,2.168853E1,-7.4091063E0,-1.5207151E1,-3.6638996E1,3.724188E1,3.7657251E0,-3.3910103E0,1.5681135E1,-2.4716127E1,-4.0222763E1,-4.4678368E1,-6.0243465E1,-3.336966E1,-4.980903E1,-2.045297E1,1.122895E1,-5.5348564E1,-1.9368668E1,-3.2343507E0,-3.8125565E0,-6.579744E1,-5.4619457E1,-3.5996377E0,-4.1027317E0,-3.9503956E0,-4.328855E0,4.0552588E0,2.8783224E0,1.7923447E0,3.5275002E0,3.89657E0,2.6029747E0,2.2629178E0,1.3013556E0,1.1962001E0,-6.5258056E-1,1.3813556E0,-5.903959E-1,-1.6412647E-1,-1.065703E0,-1.1751832E0,-2.1267018E0,2.126997E0,3.1850252E-1,3.16274E-1,-2.1098518E0,3.5996452E-1,-6.908766E-1,5.2320635E-1,1.9694312E0,-9.086324E-1,-1.630606E0,1.297972E-1,-2.0998476E0,-1.9849366E0,-2.5659864E0,-2.6150186E0,-3.268376E0,-1.1660546E0,-1.9803072E0,-2.547967E0,-8.495273E-1,4.274002E-1,-1.2265025E0,2.6883453E-1,5.6119933E0,-2.971938E0,-2.4281106E0,-5.9846586E-1,-1.5088799E0,-2.4907331E0,-3.3565865E0,-2.9321456E0,-2.4060576E0],"categories":[],"categories_nodes":[],"categories_segments":[],"categories_sizes":[],"default_left":[0,0,0,0,0,0,0,0,0,0,0,0,0,0,0,0,0,0,0,0,0,0,0,0,0,0,0,0,0,0,0,0,0,0,0,0,0,0,0,0,0,0,0,0,0,0,0,0,0,0,0,0,0,0,0,0,0,0,0,0,0,0,0,0,0,0,0,0,0,0,0,0,0,0,0,0,0,0,0,0,0,0,0,0,0,0,0,0,0,0,0,0,0,0,0,0,0,0,0,0,0,0,0,0,0,0,0,0,0],"id":1,"left_children":[1,3,5,7,9,11,13,15,17,19,21,23,25,27,29,31,33,35,37,39,41,43,45,47,49,51,53,55,57,59,-1,61,63,65,67,69,71,73,75,77,79,81,83,85,87,89,91,93,95,97,99,101,103,-1,-1,105,107,-1,-1,-1,-1,-1,-1,-1,-1,-1,-1,-1,-1,-1,-1,-1,-1,-1,-1,-1,-1,-1,-1,-1,-1,-1,-1,-1,-1,-1,-1,-1,-1,-1,-1,-1,-1,-1,-1,-1,-1,-1,-1,-1,-1,-1,-1,-1,-1,-1,-1,-1,-1],"loss_changes":[2.1276866E7,3.216812E6,1.713592E6,1.473997E6,1.4443855E6,3.7967E5,2.80585E5,5.0904E5,8.991298E4,4.379952E5,6.067725E4,2.2660625E5,2.4462E4,4.034975E4,3.4073E4,2.656975E5,6.08798E5,3.1656125E4,2.8653031E4,1.9889156E5,1.751745E5,1.5564469E4,1.33336875E4,3.5655875E4,1.1369533E5,8.32825E3,3.281875E2,1.9076E4,7.8375E1,1.2005E3,0E0,1.41196E5,9.831831E4,1.557355E5,1.5085338E5,5.9038125E3,1.2347404E4,1.1071891E4,7.4405312E3,1.4022775E5,2.6738928E4,1.179176E5,1.08180766E5,1.0154148E4,7.857828E3,4.01475E3,7.3278125E2,1.8315312E4,8.6098125E3,5.897464E4,8.629442E4,4.6080625E3,3.5860645E2,0E0,0E0,4.439625E3,6.64275E3,0E0,0E0,0E0,0E0,0E0,0E0,0E0,0E0,0E0,0E0,0E0,0E0,0E0,0E0,0E0,0E0,0E0,0E0,0E0,0E0,0E0,0E0,0E0,0E0,0E0,0E0,0E0,0E0,0E0,0E0,0E0,0E0,0E0,0E0,0E0,0E0,0E0,0E0,0E0,0E0,0E0,0E0,0E0,0E0,0E0,0E0,0E0,0E0,0E0,0E0,0E0,0E0],"parents":[2147483647,0,0,1,1,2,2,3,3,4,4,5,5,6,6,7,7,8,8,9,9,10,10,11,11,12,12,13,13,14,14,15,15,16,16,17,17,18,18,19,19,20,20,21,21,22,22,23,23,24,24,25,25,26,26,27,27,28,28,29,29,31,31,32,32,33,33,34,34,35,35,36,36,37,37,38,38,39,39,40,40,41,41,42,42,43,43,44,44,45,45,46,46,47,47,48,48,49,49,50,50,51,51,52,52,55,55,56,56],"right_children":[2,4,6,8,10,12,14,16,18,20,22,24,26,28,30,32,34,36,38,40,42,44,46,48,50,52,54,56,58,60,-1,62,64,66,68,70,72,74,76,78,80,82,84,86,88,90,92,94,96,98,100,102,104,-1,-1,106,108,-1,-1,-1,-1,-1,-1,-1,-1,-1,-1,-1,-1,-1,-1,-1,-1,-1,-1,-1,-1,-1,-1,-1,-1,-1,-1,-1,-1,-1,-1,-1,-1,-1,-1,-1,-1,-1,-1,-1,-1,-1,-1,-1,-1,-1,-1,-1,-1,-1,-1,-1,-1],"split_conditions":[3.6907595E-1,-3.5865965E-1,9.0056825E-1,4.8180512E-1,2.028075E-1,3.7994727E-1,1.415707E0,-2.1951398E-1,-8.952867E-1,-6.8416905E-1,6.92665E-1,-5.830736E-1,1.3590298E0,9.215459E-1,1.8899616E0,-3.5211375E-1,-1.2172241E0,-9.866865E-1,-3.5651442E-1,2.4938507E-1,8.928483E-2,1.5006584E-1,1.5904733E0,9.8305583E-1,-2.1626359E-1,2.347926E-1,1.7085962E0,-1.0972054E0,2.1452093E0,1.8635571E0,-4.607433E0,-3.1549907E-1,-3.3640283E-1,-1.436505E0,-1.0167719E-1,8.9488244E-1,5.0740886E-1,-7.3108196E-1,-7.317622E-1,2.6285475E-1,8.2172096E-1,-2.7849087E-1,4.4518998E-1,-1.7234212E-2,7.0077375E-2,2.2165552E-1,1.8912253E-1,-5.1090217E-1,-1.6437963E-1,6.325453E-2,1.2716374E0,-4.1885322E-1,3.322585E-1,-3.2343507E0,-3.8125565E0,4.1256133E-1,-8.6774725E-1,-3.5996377E0,-4.1027317E0,-3.9503956E0,-4.328855E0,4.0552588E0,2.8783224E0,1.7923447E0,3.5275002E0,3.89657E0,2.6029747E0,2.2629178E0,1.3013556E0,1.1962001E0,-6.5258056E-1,1.3813556E0,-5.903959E-1,-1.6412647E-1,-1.065703E0,-1.1751832E0,-2.1267018E0,2.126997E0,3.1850252E-1,3.16274E-1,-2.1098518E0,3.5996452E-1,-6.908766E-1,5.2320635E-1,1.9694312E0,-9.086324E-1,-1.630606E0,1.297972E-1,-2.0998476E0,-1.9849366E0,-2.5659864E0,-2.6150186E0,-3.268376E0,-1.1660546E0,-1.9803072E0,-2.547967E0,-8.495273E-1,4.274002E-1,-1.2265025E0,2.6883453E-1,5.6119933E0,-2.971938E0,-2.4281106E0,-5.9846586E-1,-1.5088799E0,-2.4907331E0,-3.3565865E0,-2.9321456E0,-2.4060576E0],"split_indices":[128,128,128,122,140,122,128,143,131,143,142,132,122,142,128,116,128,146,147,131,171,95,140,136,112,115,180,132,143,96,0,143,142,103,140,16,142,102,131,103,131,122,132,99,143,95,146,142,168,144,95,166,1,0,0,95,115,0,0,0,0,0,0,0,0,0,0,0,0,0,0,0,0,0,0,0,0,0,0,0,0,0,0,0,0,0,0,0,0,0,0,0,0,0,0,0,0,0,0,0,0,0,0,0,0,0,0,0,0],"split_type":[0,0,0,0,0,0,0,0,0,0,0,0,0,0,0,0,0,0,0,0,0,0,0,0,0,0,0,0,0,0,0,0,0,0,0,0,0,0,0,0,0,0,0,0,0,0,0,0,0,0,0,0,0,0,0,0,0,0,0,0,0,0,0,0,0,0,0,0,0,0,0,0,0,0,0,0,0,0,0,0,0,0,0,0,0,0,0,0,0,0,0,0,0,0,0,0,0,0,0,0,0,0,0,0,0,0,0,0,0],"sum_hessian":[1.2605E4,8.615E3,3.99E3,4.999E3,3.616E3,1.633E3,2.357E3,4.591E3,4.08E2,3.025E3,5.91E2,1.198E3,4.35E2,9.79E2,1.378E3,1.598E3,2.993E3,1.48E2,2.6E2,1.082E3,1.943E3,3.08E2,2.83E2,5.56E2,6.42E2,2.77E2,1.58E2,7.25E2,2.54E2,6.87E2,6.91E2,1.129E3,4.69E2,1.014E3,1.979E3,7.1E1,7.7E1,1.52E2,1.08E2,8.58E2,2.24E2,1.066E3,8.77E2,2.07E2,1.01E2,1.82E2,1.01E2,3.06E2,2.5E2,4.96E2,1.46E2,2.69E2,8E0,7.7E1,8.1E1,3.64E2,3.61E2,1.69E2,8.5E1,5.02E2,1.85E2,7.09E2,4.2E2,3.62E2,1.07E2,3.81E2,6.33E2,5.8E2,1.399E3,6.7E1,4E0,8E0,6.9E1,5.2E1,1E2,3.5E1,7.3E1,7.32E2,1.26E2,2.13E2,1.1E1,5.29E2,5.37E2,7.2E2,1.57E2,1.15E2,9.2E1,4E0,9.7E1,1.08E2,7.4E1,4.4E1,5.7E1,1.19E2,1.87E2,2.41E2,9E0,6.1E1,4.35E2,1.39E2,7E0,1.63E2,1.06E2,6E0,2E0,3.1E1,3.33E2,2.18E2,1.43E2],"tree_param":{"num_deleted":"0","num_feature":"193","num_nodes":"109","size_leaf_vector":"1"}},{"base_weights":[-2.8157E-1,4.8643677E1,-4.7119843E1,7.251516E1,2.2983128E1,-2.376845E1,-7.0485596E1,8.960594E1,5.9048252E1,3.393981E1,1.08392935E1,-1.1710956E1,-3.562594E1,-5.8089787E1,-8.160465E1,1.405048E2,8.560411E1,6.5769455E1,4.5960224E1,2.3066946E1,3.911808E1,1.5184188E1,-1.2157939E-2,-2.5305904E1,-8.946431E0,-3.0066938E1,-4.151404E1,-5.2340256E1,-6.3471878E1,-7.5278534E1,-8.773914E1,1.587961E2,1.1518269E2,9.313139E1,7.086392E1,5.9851124E1,8.425145E1,5.708711E1,4.072526E1,2.1731583E1,4.7271175E0,4.5641445E1,2.9139397E1,7.1289296E0,2.0663307E1,7.0894775E0,-6.7723103E0,-2.187002E1,-3.8339455E1,-2.7014565E0,-1.5057481E1,-3.781611E1,-2.7390759E1,-2.4949262E0,-3.9411953E1,-2.9338121E0,-5.040475E1,-3.3766441E0,-6.1030163E1,-3.579404E0,-3.8860474E0,-4.211556E0,-4.529802E0,6.2744927E0,8.910341E0,6.082056E0,3.7557847E0,4.1826587E0,5.8196177E0,3.3315628E0,5.449165E0,4.330728E0,2.7438743E0,4.601951E0,2.097919E0,2.6725926E0,4.378258E0,1.0254712E0,2.2089343E0,8.883727E-1,1.9423153E0,1.0994762E0,2.5825408E0,1.2385749E0,2.2464166E0,1.23079814E-1,1.1289457E0,-2.4332066E-1,1.1967827E0,9.535281E-1,1.2061451E-2,-1.0196775E0,-2.2700766E-1,-1.1950068E0,-1.4408515E-1,-1.7279482E-1,-2.0142753E0,1.8042587E0,-1.7072292E-1,-9.4066745E-1,-4.8755136E-1,-9.787988E-1,-1.9750804E0,-3.8218802E-1,-1.4236562E0,-1.6087049E0,-2.0519564E0,-2.104972E0,-2.572498E0,-2.4820821E0,-3.1206138E0],"categories":[],"categories_nodes":[],"categories_segments":[],"categories_sizes":[],"default_left":[0,0,0,0,0,0,0,0,0,0,0,0,0,0,0,0,0,0,0,0,0,0,0,0,0,0,0,0,0,0,0,0,0,0,0,0,0,0,0,0,0,0,0,0,0,0,0,0,0,0,0,0,0,0,0,0,0,0,0,0,0,0,0,0,0,0,0,0,0,0,0,0,0,0,0,0,0,0,0,0,0,0,0,0,0,0,0,0,0,0,0,0,0,0,0,0,0,0,0,0,0,0,0,0,0,0,0,0,0,0,0],"id":2,"left_children":[1,3,5,7,9,11,13,15,17,19,21,23,25,27,29,31,33,35,37,39,41,43,45,47,49,51,53,55,57,59,61,63,65,67,69,71,73,75,77,79,-1,81,83,85,87,89,91,93,95,97,99,101,103,-1,105,-1,107,-1,109,-1,-1,-1,-1,-1,-1,-1,-1,-1,-1,-1,-1,-1,-1,-1,-1,-1,-1,-1,-1,-1,-1,-1,-1,-1,-1,-1,-1,-1,-1,-1,-1,-1,-1,-1,-1,-1,-1,-1,-1,-1,-1,-1,-1,-1,-1,-1,-1,-1,-1,-1,-1],"loss_changes":[2.8917372E7,3.779027E6,3.515954E6,7.3053E5,3.9560738E5,4.6080912E5,4.39347E5,2.74562E5,1.545265E5,8.715475E4,6.662091E4,5.9944906E4,5.1974E4,4.393E4,5.9214E4,2.849E4,1.38417E5,1.241375E5,3.3265125E4,4.6336312E4,6.7540125E4,4.438564E4,1.9491307E4,1.1252578E4,5.0792914E4,1.6384188E4,1.1904375E4,6.1665E3,3.6525E3,2.026E3,9.375E2,1.384075E4,2.7663125E3,1.80311E5,6.469875E4,1.147815E5,8.9676375E4,1.6703E4,2.8345875E4,3.3164438E4,0E0,8.954525E4,2.7921062E4,2.950961E4,5.0241703E4,1.62411875E4,6.2315986E3,8.257617E3,3.594461E3,1.8375469E4,1.3229672E4,5.7751562E3,1.32049375E4,0E0,6.1463125E3,0E0,2.84275E3,0E0,4.77175E3,0E0,0E0,0E0,0E0,0E0,0E0,0E0,0E0,0E0,0E0,0E0,0E0,0E0,0E0,0E0,0E0,0E0,0E0,0E0,0E0,0E0,0E0,0E0,0E0,0E0,0E0,0E0,0E0,0E0,0E0,0E0,0E0,0E0,0E0,0E0,0E0,0E0,0E0,0E0,0E0,0E0,0E0,0E0,0E0,0E0,0E0,0E0,0E0,0E0,0E0,0E0,0E0],"parents":[2147483647,0,0,1,1,2,2,3,3,4,4,5,5,6,6,7,7,8,8,9,9,10,10,11,11,12,12,13,13,14,14,15,15,16,16,17,17,18,18,19,19,20,20,21,21,22,22,23,23,24,24,25,25,26,26,27,27,28,28,29,29,30,30,31,31,32,32,33,33,34,34,35,35,36,36,37,37,38,38,39,39,41,41,42,42,43,43,44,44,45,45,46,46,47,47,48,48,49,49,50,50,51,51,52,52,54,54,56,56,58,58],"right_children":[2,4,6,8,10,12,14,16,18,20,22,24,26,28,30,32,34,36,38,40,42,44,46,48,50,52,54,56,58,60,62,64,66,68,70,72,74,76,78,80,-1,82,84,86,88,90,92,94,96,98,100,102,104,-1,106,-1,108,-1,110,-1,-1,-1,-1,-1,-1,-1,-1,-1,-1,-1,-1,-1,-1,-1,-1,-1,-1,-1,-1,-1,-1,-1,-1,-1,-1,-1,-1,-1,-1,-1,-1,-1,-1,-1,-1,-1,-1,-1,-1,-1,-1,-1,-1,-1,-1,-1,-1,-1,-1,-1,-1],"split_conditions":[-2.2579739E-2,-8.4194696E-1,8.5286427E-1,-1.340995E0,-4.1253355E-1,4.103154E-1,1.2703028E0,-1.7110718E0,-2.4764493E-1,2.3304132E-1,-1.22079225E-2,-6.4595985E-1,6.3662785E-1,1.0544355E0,1.500097E0,-1.7296532E0,-2.5854775E-1,-5.896942E-1,-1.177873E0,1.6737425E-1,1.0365788E0,-8.3237195E-1,-3.2537094E-1,6.370873E-1,1.9406126E-1,-4.212621E-1,-4.5860225E-1,-4.2452174E-1,-1.8131018E-1,1.3644129E0,1.6061213E0,-1.1888385E0,9.989658E-1,-7.935613E-1,6.989201E-1,6.781496E-1,-3.3100748E-1,8.5264874E-1,-4.1885322E-1,7.6415366E-1,4.7271175E0,-5.4197735E-1,1.8142845E-1,2.1572751E-1,-8.0337054E-1,1.544472E-1,4.1799817E-2,-5.80617E-1,2.2165552E-1,-1.725177E0,-1.8045567E-2,-1.0682782E0,-3.3640283E-1,-2.4949262E0,-2.0833369E-1,-2.9338121E0,-2.3899497E-1,-3.3766441E0,-1.6548914E-1,-3.579404E0,-3.8860474E0,-4.211556E0,-4.529802E0,6.2744927E0,8.910341E0,6.082056E0,3.7557847E0,4.1826587E0,5.8196177E0,3.3315628E0,5.449165E0,4.330728E0,2.7438743E0,4.601951E0,2.097919E0,2.6725926E0,4.378258E0,1.0254712E0,2.2089343E0,8.883727E-1,1.9423153E0,1.0994762E0,2.5825408E0,1.2385749E0,2.2464166E0,1.23079814E-1,1.1289457E0,-2.4332066E-1,1.1967827E0,9.535281E-1,1.2061451E-2,-1.0196775E0,-2.2700766E-1,-1.1950068E0,-1.4408515E-1,-1.7279482E-1,-2.0142753E0,1.8042587E0,-1.7072292E-1,-9.4066745E-1,-4.8755136E-1,-9.787988E-1,-1.9750804E0,-3.8218802E-1,-1.4236562E0,-1.6087049E0,-2.0519564E0,-2.104972E0,-2.572498E0,-2.4820821E0,-3.1206138E0],"split_indices":[24,24,24,24,24,24,24,24,136,166,103,142,24,24,24,24,116,95,24,142,135,103,135,102,24,142,120,122,122,24,24,102,101,102,95,167,146,171,166,119,0,142,122,122,122,146,103,120,95,98,119,170,142,0,122,0,122,0,142,0,0,0,0,0,0,0,0,0,0,0,0,0,0,0,0,0,0,0,0,0,0,0,0,0,0,0,0,0,0,0,0,0,0,0,0,0,0,0,0,0,0,0,0,0,0,0,0,0,0,0,0],"split_type":[0,0,0,0,0,0,0,0,0,0,0,0,0,0,0,0,0,0,0,0,0,0,0,0,0,0,0,0,0,0,0,0,0,0,0,0,0,0,0,0,0,0,0,0,0,0,0,0,0,0,0,0,0,0,0,0,0,0,0,0,0,0,0,0,0,0,0,0,0,0,0,0,0,0,0,0,0,0,0,0,0,0,0,0,0,0,0,0,0,0,0,0,0,0,0,0,0,0,0,0,0,0,0,0,0,0,0,0,0,0,0],"sum_hessian":[1.2617E4,6.171E3,6.446E3,3.196E3,2.975E3,3.225E3,3.221E3,1.406E3,1.79E3,1.563E3,1.412E3,1.6E3,1.625E3,1.526E3,1.695E3,1E2,1.306E3,1.18E3,6.1E2,5.06E2,1.057E3,1.008E3,4.04E2,2.69E2,1.331E3,8.39E2,7.86E2,7.43E2,7.83E2,8.41E2,8.54E2,5.5E1,4.5E1,8.61E2,4.45E2,8.97E2,2.83E2,1.92E2,4.18E2,4.98E2,8E0,6.37E2,4.2E2,4.09E2,5.99E2,1.97E2,2.07E2,2.15E2,5.4E1,6.59E2,6.72E2,2.12E2,6.27E2,1.53E2,6.33E2,1.67E2,5.76E2,2.84E2,4.99E2,3.47E2,4.94E2,3.97E2,4.57E2,2.3E1,3.2E1,3.7E1,8E0,6.15E2,2.46E2,4.03E2,4.2E1,1.38E2,7.59E2,2.38E2,4.5E1,1.74E2,1.8E1,6.2E1,3.56E2,4.06E2,9.2E1,1.3E2,5.07E2,3.31E2,8.9E1,3.15E2,9.4E1,6.8E1,5.31E2,7.1E1,1.26E2,2.8E1,1.79E2,1.94E2,2.1E1,3E0,5.1E1,1.1E1,6.48E2,3.92E2,2.8E2,1.9E1,1.93E2,3.3E1,5.94E2,1.2E2,5.13E2,6.9E1,5.07E2,5.8E1,4.41E2],"tree_param":{"num_deleted":"0","num_feature":"193","num_nodes":"111","size_leaf_vector":"1"}},{"base_weights":[1.2032758E-1,4.827117E1,-4.300372E1,7.112543E1,2.6085161E1,-1.911369E1,-6.539292E1,9.54692E1,6.433656E1,3.5873196E1,1.5083595E1,-8.47881E0,-3.0907747E1,-5.3155724E1,-7.694444E1,1.5458507E2,9.042342E1,5.276877E1,7.119121E1,4.1747173E1,2.5882454E1,6.8866844E0,2.1956373E1,-2.7852874E0,-1.5055266E1,-2.5391775E1,-3.5494904E1,-4.6790237E1,-5.84069E1,-6.986547E1,-8.248544E1,5.88584E0,8.901605E0,9.959835E1,7.4753815E1,5.993309E1,4.5581955E1,8.245929E1,6.0462814E1,3.3922592E1,5.649202E1,7.872579E0,2.9791178E1,-7.9576344E0,9.114271E0,1.4643777E1,4.7486946E1,-1.4973252E1,-4.0240193E-4,-2.2129393E1,-1.1297946E1,9.8044795E-1,-2.5940351E1,-4.313904E1,-3.2535088E1,-2.6796243E0,-4.489959E1,-5.5395603E1,-6.137558E1,-3.3672512E0,-3.6434371E0,-3.9391725E0,-4.2931743E0,7.011604E0,4.2651515E0,3.0445645E0,4.1669545E0,2.92317E0,5.7833366E0,2.1228106E0,3.7693639E0,2.3372257E0,4.468241E0,1.3602351E0,3.1694522E0,1.3891615E0,2.3751647E0,2.1070955E0,3.698777E0,1.3800025E0,-5.8775444E-2,1.4486313E0,4.556442E0,3.1445587E-1,-5.7794255E-1,5.6716007E-1,-1.14666E-1,6.143231E-1,2.0329273E0,1.1251507E0,3.0109916E0,1.7255725E-1,-8.7264234E-1,-1.7639856E-1,3.741384E-1,-5.2869475E-1,-1.2151746E0,-3.7132996E-1,-1.0242487E0,-1.4393774E0,-9.1606635E-1,-1.1581242E0,-2.2018335E0,-4.3312213E-1,-1.7036108E0,-1.8532025E0,-2.3021128E0,-2.7790582E0,-1.005716E0,-3.2506063E0,-2.9476402E0],"categories":[],"categories_nodes":[],"categories_segments":[],"categories_sizes":[],"default_left":[0,0,0,0,0,0,0,0,0,0,0,0,0,0,0,0,0,0,0,0,0,0,0,0,0,0,0,0,0,0,0,0,0,0,0,0,0,0,0,0,0,0,0,0,0,0,0,0,0,0,0,0,0,0,0,0,0,0,0,0,0,0,0,0,0,0,0,0,0,0,0,0,0,0,0,0,0,0,0,0,0,0,0,0,0,0,0,0,0,0,0,0,0,0,0,0,0,0,0,0,0,0,0,0,0,0,0,0,0,0,0],"id":3,"left_children":[1,3,5,7,9,11,13,15,17,19,21,23,25,27,29,31,33,35,37,39,41,43,45,47,49,51,53,55,57,59,61,-1,-1,63,65,67,69,71,73,75,77,79,81,83,85,87,89,91,93,95,97,-1,99,101,103,-1,105,107,109,-1,-1,-1,-1,-1,-1,-1,-1,-1,-1,-1,-1,-1,-1,-1,-1,-1,-1,-1,-1,-1,-1,-1,-1,-1,-1,-1,-1,-1,-1,-1,-1,-1,-1,-1,-1,-1,-1,-1,-1,-1,-1,-1,-1,-1,-1,-1,-1,-1,-1,-1,-1],"loss_changes":[2.6317044E7,3.034327E6,3.574949E6,4.8123E5,3.268175E5,4.0562412E5,4.83737E5,1.77223E5,1.7933E5,9.3285625E4,8.0577625E4,6.372385E4,3.7912875E4,5.339E4,6.3783E4,2.140075E4,7.78085E4,4.170275E4,1.6994E5,1.14725125E5,4.186203E4,2.1731426E4,1.4473984E5,3.1023055E4,2.0747984E4,1.7789094E4,1.74885E4,7.419375E3,4.7885E3,1.03475E3,5.603E3,0E0,0E0,2.0354125E5,2.1465375E4,2.8377625E4,3.7325562E4,1.69203E5,7.07795E4,5.3959062E4,8.4443375E4,1.931E4,2.2011969E4,4.4849785E3,1.4519238E4,3.6724734E4,5.367922E4,7.8266875E3,1.969246E4,6.601547E3,1.8271148E4,0E0,1.4484031E4,3.10425E3,2.1942188E4,0E0,3.701375E3,1.926375E3,1.49625E2,0E0,0E0,0E0,0E0,0E0,0E0,0E0,0E0,0E0,0E0,0E0,0E0,0E0,0E0,0E0,0E0,0E0,0E0,0E0,0E0,0E0,0E0,0E0,0E0,0E0,0E0,0E0,0E0,0E0,0E0,0E0,0E0,0E0,0E0,0E0,0E0,0E0,0E0,0E0,0E0,0E0,0E0,0E0,0E0,0E0,0E0,0E0,0E0,0E0,0E0,0E0,0E0],"parents":[2147483647,0,0,1,1,2,2,3,3,4,4,5,5,6,6,7,7,8,8,9,9,10,10,11,11,12,12,13,13,14,14,15,15,16,16,17,17,18,18,19,19,20,20,21,21,22,22,23,23,24,24,25,25,26,26,27,27,28,28,29,29,30,30,33,33,34,34,35,35,36,36,37,37,38,38,39,39,40,40,41,41,42,42,43,43,44,44,45,45,46,46,47,47,48,48,49,49,50,50,52,52,53,53,54,54,56,56,57,57,58,58],"right_children":[2,4,6,8,10,12,14,16,18,20,22,24,26,28,30,32,34,36,38,40,42,44,46,48,50,52,54,56,58,60,62,-1,-1,64,66,68,70,72,74,76,78,80,82,84,86,88,90,92,94,96,98,-1,100,102,104,-1,106,108,110,-1,-1,-1,-1,-1,-1,-1,-1,-1,-1,-1,-1,-1,-1,-1,-1,-1,-1,-1,-1,-1,-1,-1,-1,-1,-1,-1,-1,-1,-1,-1,-1,-1,-1,-1,-1,-1,-1,-1,-1,-1,-1,-1,-1,-1,-1,-1,-1,-1,-1,-1,-1],"split_conditions":[-1.0160692E-1,-9.3624383E-1,7.8688705E-1,-1.5568258E0,-4.9401078E-1,3.6737406E-1,1.2416557E0,-1.7296532E0,4.8404878E-1,-2.5854775E-1,4.3442857E-1,1.5382794E-1,5.561612E-1,9.9872786E-1,1.4586213E0,-9.039604E-1,-6.15085E-1,-1.2329903E0,-6.4494684E-2,-5.9786916E-1,-9.956532E-1,-5.4350305E-1,-4.1893345E-1,-6.101038E-1,-7.780341E-2,-1.3194999E0,-4.212621E-1,-4.2452174E-1,1.121758E0,1.3644129E0,1.5929432E0,5.88584E0,8.901605E0,8.7151515E-1,-4.6042687E-1,1.0805042E0,8.7667453E-1,-7.2437876E-1,3.455257E-1,1.221846E-1,6.323669E-1,-1.1754338E0,1.0135851E0,-1.712019E-1,4.2446652E-1,-2.7621233E-1,-6.2465596E-1,-7.01276E-1,-1.2645318E-1,-1.7091635E-1,7.1321136E-1,9.8044795E-1,2.9367992E-1,-1.0824777E0,-3.5134286E-1,-2.6796243E0,-2.3899497E-1,2.7082996E0,-1.4857017E-1,-3.3672512E0,-3.6434371E0,-3.9391725E0,-4.2931743E0,7.011604E0,4.2651515E0,3.0445645E0,4.1669545E0,2.92317E0,5.7833366E0,2.1228106E0,3.7693639E0,2.3372257E0,4.468241E0,1.3602351E0,3.1694522E0,1.3891615E0,2.3751647E0,2.1070955E0,3.698777E0,1.3800025E0,-5.8775444E-2,1.4486313E0,4.556442E0,3.1445587E-1,-5.7794255E-1,5.6716007E-1,-1.14666E-1,6.143231E-1,2.0329273E0,1.1251507E0,3.0109916E0,1.7255725E-1,-8.7264234E-1,-1.7639856E-1,3.741384E-1,-5.2869475E-1,-1.2151746E0,-3.7132996E-1,-1.0242487E0,-1.4393774E0,-9.1606635E-1,-1.1581242E0,-2.2018335E0,-4.3312213E-1,-1.7036108E0,-1.8532025E0,-2.3021128E0,-2.7790582E0,-1.005716E0,-3.2506063E0,-2.9476402E0],"split_indices":[24,24,24,24,24,24,24,24,132,116,114,24,24,24,24,130,103,24,142,118,122,114,138,142,171,170,142,122,24,24,24,0,0,134,98,166,171,122,114,122,134,142,170,147,135,147,97,170,118,94,170,0,122,170,142,0,122,129,122,0,0,0,0,0,0,0,0,0,0,0,0,0,0,0,0,0,0,0,0,0,0,0,0,0,0,0,0,0,0,0,0,0,0,0,0,0,0,0,0,0,0,0,0,0,0,0,0,0,0,0,0],"split_type":[0,0,0,0,0,0,0,0,0,0,0,0,0,0,0,0,0,0,0,0,0,0,0,0,0,0,0,0,0,0,0,0,0,0,0,0,0,0,0,0,0,0,0,0,0,0,0,0,0,0,0,0,0,0,0,0,0,0,0,0,0,0,0,0,0,0,0,0,0,0,0,0,0,0,0,0,0,0,0,0,0,0,0,0,0,0,0,0,0,0,0,0,0,0,0,0,0,0,0,0,0,0,0,0,0,0,0,0,0,0,0],"sum_hessian":[1.2672E4,5.987E3,6.685E3,2.948E3,3.039E3,3.235E3,3.45E3,6.4E2,2.308E3,1.607E3,1.432E3,1.702E3,1.533E3,1.678E3,1.772E3,4.8E1,5.92E2,8.62E2,1.446E3,1.01E3,5.97E2,6.54E2,7.78E2,9.13E2,7.89E2,6.99E2,8.34E2,7.63E2,9.15E2,7.84E2,9.88E2,2.1E1,2.7E1,3.7E2,2.22E2,4.28E2,4.34E2,7.02E2,7.44E2,6.62E2,3.48E2,1.07E2,4.9E2,8.5E1,5.69E2,6.06E2,1.72E2,1.69E2,7.44E2,2.72E2,5.17E2,8E0,6.91E2,2.29E2,6.05E2,1.6E2,6.03E2,4.64E2,4.51E2,4.39E2,3.45E2,4.83E2,5.05E2,9.4E1,2.76E2,8.8E1,1.34E2,4.19E2,9E0,3.95E2,3.9E1,1.15E2,5.87E2,6.1E1,6.83E2,4.58E2,2.04E2,1.93E2,1.55E2,3.3E1,7.4E1,4.85E2,5E0,1.7E1,6.8E1,4.76E2,9.3E1,5.57E2,4.9E1,5.9E1,1.13E2,2E1,1.49E2,5.06E2,2.38E2,4.4E1,2.28E2,3.65E2,1.52E2,5.01E2,1.9E2,1.1E1,2.18E2,3.7E1,5.68E2,8.1E1,5.22E2,4.61E2,3E0,1.7E2,2.81E2],"tree_param":{"num_deleted":"0","num_feature":"193","num_nodes":"111","size_leaf_vector":"1"}},{"base_weights":[3.124251E-2,4.601895E1,-4.068891E1,6.881713E1,2.5927961E1,-1.7974257E1,-6.2269222E1,8.7586975E1,6.0738773E1,3.741216E1,1.45147085E1,-7.753342E0,-2.8712608E1,-5.0763664E1,-7.34009E1,1.302592E2,8.20909E1,4.809399E1,6.7102425E1,2.9175419E1,4.5664295E1,8.490264E0,2.1045898E1,-1.2350982E0,-1.3057381E1,-2.34681E1,-3.466956E1,-4.436001E1,-5.585284E1,-6.756564E1,-7.9239006E1,1.0366118E2,1.5106029E2,9.0039925E1,6.730549E1,4.3951664E1,6.190332E1,5.8944942E1,7.81914E1,5.413675E1,2.7223286E1,8.2560394E1,3.6529266E1,5.0899837E1,7.477487E0,6.9643936E1,1.6063498E1,-1.6591024E1,1.3780547E0,-2.420774E1,-1.07635145E1,-3.3617493E1,-2.1196737E1,-4.2104675E1,-3.2326736E1,-2.5305297E0,-4.224234E1,-3.0467374E0,-5.3949963E1,-3.227139E0,-3.5230637E0,-3.8121479E0,-4.1148477E0,3.1428342E0,5.484106E0,4.661164E0,8.659203E0,6.1585684E0,3.9090106E0,4.030977E0,2.9995027E0,2.7120204E0,1.8428061E0,3.5487561E0,1.7817534E0,4.8870234E0,2.8418608E0,2.2609391E0,4.3581085E0,3.944205E0,7.5999695E-1,-3.2166395E-1,1.4089535E0,5.114774E0,2.0348718E0,1.6232636E0,2.5413873E0,1.4293429E0,3.2264328E0,8.427867E-1,1.9909285E-1,3.7096696E0,4.3754348E-1,7.3970896E-1,4.0367393E0,-1.4187474E0,-5.982333E-1,-7.37034E-2,5.242328E-1,-1.9123983E0,-1.0808599E0,-6.724505E-1,-2.4751897E-1,-1.7351542E0,-1.1076586E0,9.3012375E-1,-1.0873402E0,-1.5103819E0,-2.1518526E0,-1.2565694E0,-1.712146E0,-1.2936476E0,-2.1538308E0,-2.5657203E0,-2.8503306E0],"categories":[],"categories_nodes":[],"categories_segments":[],"categories_sizes":[],"default_left":[0,0,0,0,0,0,0,0,0,0,0,0,0,0,0,0,0,0,0,0,0,0,0,0,0,0,0,0,0,0,0,0,0,0,0,0,0,0,0,0,0,0,0,0,0,0,0,0,0,0,0,0,0,0,0,0,0,0,0,0,0,0,0,0,0,0,0,0,0,0,0,0,0,0,0,0,0,0,0,0,0,0,0,0,0,0,0,0,0,0,0,0,0,0,0,0,0,0,0,0,0,0,0,0,0,0,0,0,0,0,0,0,0,0,0],"id":4,"left_children":[1,3,5,7,9,11,13,15,17,19,21,23,25,27,29,31,33,35,37,39,41,43,45,47,49,51,53,55,57,59,61,63,65,67,69,71,73,75,77,79,81,83,85,87,89,91,93,95,97,99,101,103,105,107,109,-1,111,-1,113,-1,-1,-1,-1,-1,-1,-1,-1,-1,-1,-1,-1,-1,-1,-1,-1,-1,-1,-1,-1,-1,-1,-1,-1,-1,-1,-1,-1,-1,-1,-1,-1,-1,-1,-1,-1,-1,-1,-1,-1,-1,-1,-1,-1,-1,-1,-1,-1,-1,-1,-1,-1,-1,-1,-1,-1],"loss_changes":[2.3550152E7,2.703388E6,3.268443E6,4.14088E5,4.1115425E5,3.5659325E5,4.34295E5,1.839665E5,1.52637E5,1.05042E5,6.1871188E4,5.76171E4,4.870375E4,5.24355E4,5.3786E4,3.5794875E4,8.06765E4,3.4575375E4,1.1172E5,3.6826375E4,2.5988062E5,3.492546E4,1.8193525E5,3.0078273E4,2.324511E4,1.8790188E4,1.15290625E4,7.802875E3,5.75425E3,3.11125E3,1.623E3,3.9157188E3,4.783375E4,1.77798E5,2.0682E4,3.4868E4,3.2739312E4,5.536375E4,1.563765E5,5.276161E4,2.3696438E4,1.23067E5,3.4784125E4,3.9332188E3,2.629032E4,1.8742875E4,5.5200375E4,5.6028184E3,1.6664242E4,4.8471875E3,1.1860336E4,1.135375E3,1.559775E4,6.3009375E2,6.9570625E3,0E0,6.628625E3,0E0,2.62525E3,0E0,0E0,0E0,0E0,0E0,0E0,0E0,0E0,0E0,0E0,0E0,0E0,0E0,0E0,0E0,0E0,0E0,0E0,0E0,0E0,0E0,0E0,0E0,0E0,0E0,0E0,0E0,0E0,0E0,0E0,0E0,0E0,0E0,0E0,0E0,0E0,0E0,0E0,0E0,0E0,0E0,0E0,0E0,0E0,0E0,0E0,0E0,0E0,0E0,0E0,0E0,0E0,0E0,0E0,0E0,0E0],"parents":[2147483647,0,0,1,1,2,2,3,3,4,4,5,5,6,6,7,7,8,8,9,9,10,10,11,11,12,12,13,13,14,14,15,15,16,16,17,17,18,18,19,19,20,20,21,21,22,22,23,23,24,24,25,25,26,26,27,27,28,28,29,29,30,30,31,31,32,32,33,33,34,34,35,35,36,36,37,37,38,38,39,39,40,40,41,41,42,42,43,43,44,44,45,45,46,46,47,47,48,48,49,49,50,50,51,51,52,52,53,53,54,54,56,56,58,58],"right_children":[2,4,6,8,10,12,14,16,18,20,22,24,26,28,30,32,34,36,38,40,42,44,46,48,50,52,54,56,58,60,62,64,66,68,70,72,74,76,78,80,82,84,86,88,90,92,94,96,98,100,102,104,106,108,110,-1,112,-1,114,-1,-1,-1,-1,-1,-1,-1,-1,-1,-1,-1,-1,-1,-1,-1,-1,-1,-1,-1,-1,-1,-1,-1,-1,-1,-1,-1,-1,-1,-1,-1,-1,-1,-1,-1,-1,-1,-1,-1,-1,-1,-1,-1,-1,-1,-1,-1,-1,-1,-1,-1,-1,-1,-1,-1,-1],"split_conditions":[-1.0160692E-1,-9.6307194E-1,7.8688705E-1,-1.5034758E0,-5.333735E-1,3.5499457E-1,1.255702E0,-1.7110718E0,4.2446652E-1,6.4731365E-1,5.741331E-1,9.812025E-2,5.8392787E-1,9.9872786E-1,1.500097E0,-7.3105145E-1,-3.5211375E-1,6.7347944E-1,-9.135097E-1,-5.9604657E-1,6.081002E-1,-1.1621015E0,4.2311218E-1,-6.9289494E-1,-6.3017744E-1,-4.885581E-1,-4.3984336E-1,-3.6631727E-1,-3.6274916E-1,1.3780707E0,1.6205673E0,8.464727E-1,2.885913E-1,8.7151515E-1,-2.182513E-1,-3.1209365E-1,1.3725536E-1,6.1193043E-1,-7.316543E-1,8.0703664E-1,-1.1411494E0,-1.7448542E-1,1.8142845E-1,3.3821538E-1,-4.1253355E-1,2.5740433E-1,-1.06815495E-1,-6.197055E-1,-1.6896086E-3,-6.3536054E-1,-7.7664E-2,1.6020721E0,-1.3194999E0,-1.061161E0,-8.77157E-1,-2.5305297E0,-3.3149853E-1,-3.0467374E0,1.1351031E0,-3.227139E0,-3.5230637E0,-3.8121479E0,-4.1148477E0,3.1428342E0,5.484106E0,4.661164E0,8.659203E0,6.1585684E0,3.9090106E0,4.030977E0,2.9995027E0,2.7120204E0,1.8428061E0,3.5487561E0,1.7817534E0,4.8870234E0,2.8418608E0,2.2609391E0,4.3581085E0,3.944205E0,7.5999695E-1,-3.2166395E-1,1.4089535E0,5.114774E0,2.0348718E0,1.6232636E0,2.5413873E0,1.4293429E0,3.2264328E0,8.427867E-1,1.9909285E-1,3.7096696E0,4.3754348E-1,7.3970896E-1,4.0367393E0,-1.4187474E0,-5.982333E-1,-7.37034E-2,5.242328E-1,-1.9123983E0,-1.0808599E0,-6.724505E-1,-2.4751897E-1,-1.7351542E0,-1.1076586E0,9.3012375E-1,-1.0873402E0,-1.5103819E0,-2.1518526E0,-1.2565694E0,-1.712146E0,-1.2936476E0,-2.1538308E0,-2.5657203E0,-2.8503306E0],"split_indices":[24,24,24,24,24,24,24,24,135,134,114,24,24,24,24,138,116,138,116,154,135,94,134,143,143,123,143,122,123,24,24,9,134,134,135,146,103,167,122,135,146,119,122,9,24,98,138,114,94,98,131,118,170,168,97,0,122,0,24,0,0,0,0,0,0,0,0,0,0,0,0,0,0,0,0,0,0,0,0,0,0,0,0,0,0,0,0,0,0,0,0,0,0,0,0,0,0,0,0,0,0,0,0,0,0,0,0,0,0,0,0,0,0,0,0],"split_type":[0,0,0,0,0,0,0,0,0,0,0,0,0,0,0,0,0,0,0,0,0,0,0,0,0,0,0,0,0,0,0,0,0,0,0,0,0,0,0,0,0,0,0,0,0,0,0,0,0,0,0,0,0,0,0,0,0,0,0,0,0,0,0,0,0,0,0,0,0,0,0,0,0,0,0,0,0,0,0,0,0,0,0,0,0,0,0,0,0,0,0,0,0,0,0,0,0,0,0,0,0,0,0,0,0,0,0,0,0,0,0,0,0,0,0],"sum_hessian":[1.2574E4,5.905E3,6.669E3,2.765E3,3.14E3,3.25E3,3.419E3,8.29E2,1.936E3,1.564E3,1.576E3,1.666E3,1.584E3,1.684E3,1.735E3,9.2E1,7.37E2,6.51E2,1.285E3,7.85E2,7.79E2,8.21E2,7.55E2,7.48E2,9.18E2,8.45E2,7.39E2,7.5E2,9.34E2,8.74E2,8.61E2,4.3E1,4.9E1,4.76E2,2.61E2,5.04E2,1.47E2,7.44E2,5.41E2,5.5E1,7.3E2,1.53E2,6.26E2,1.8E1,8.03E2,6.9E1,6.86E2,1.08E2,6.4E2,1.55E2,7.63E2,1.52E2,6.93E2,1.73E2,5.66E2,1.84E2,5.66E2,2.46E2,6.88E2,4.39E2,4.35E2,4.48E2,4.13E2,7E0,3.6E1,1.5E1,3.4E1,1.23E2,3.53E2,8.9E1,1.72E2,2.03E2,3.01E2,1.08E2,3.9E1,3.6E1,7.08E2,1.17E2,4.24E2,3.3E1,2.2E1,2E1,7.1E2,1.03E2,5E1,4.9E2,1.36E2,8E0,1E1,2.17E2,5.86E2,6.4E1,5E0,6.74E2,1.2E1,2.9E1,7.9E1,4.88E2,1.52E2,2.2E1,1.33E2,5.21E2,2.42E2,1.37E2,1.5E1,9E0,6.84E2,1.5E1,1.58E2,1.22E2,4.44E2,2.9E1,5.37E2,3.79E2,3.09E2],"tree_param":{"num_deleted":"0","num_feature":"193","num_nodes":"115","size_leaf_vector":"1"}},{"base_weights":[-2.3403907E-1,4.3018227E1,-3.9464016E1,6.8198235E1,2.4881205E1,-1.9004126E1,-6.0634636E1,1.0720902E2,6.4689835E1,3.7811573E1,1.4504089E1,-7.7495747E0,-2.9418194E1,-5.1268696E1,-7.142424E1,1.3928844E2,9.5186165E1,5.019943E1,7.106249E1,2.8638569E1,4.649978E1,2.0091496E1,7.163328E0,-2.0393894E0,-1.2837722E1,-2.3716745E1,-3.5131676E1,-4.5680733E1,-5.6804333E1,-6.6748215E1,-3.8158002E0,5.0691595E0,1.5396426E2,1.04902054E2,7.792861E1,4.2855637E1,6.0848293E1,4.6684414E1,7.4767204E1,2.7414124E1,8.046944E1,7.944855E1,3.822849E1,1.1165161E1,2.45577E1,1.1264606E1,-2.9505423E-1,-1.4107326E1,6.8640006E-1,-2.5062912E1,-1.0374729E1,-3.3246323E1,-2.1582323E1,-4.1862484E1,-3.290623E1,-2.5525787E0,-4.3969234E1,-5.4034245E1,-2.9609506E0,-3.1934934E0,-3.4430635E0,8.503286E0,5.557827E0,4.198718E0,8.33819E0,2.7446682E0,4.162262E0,2.0761073E0,5.8085685E0,3.3392746E0,1.9558672E0,2.8276508E0,1.636204E0,3.3547146E0,4.969133E0,2.462316E-1,1.462008E0,4.5633035E0,1.1281949E0,4.8788524E0,2.892181E0,5.479013E0,1.8689528E0,8.1526655E-1,3.3938894E-1,1.6995497E0,9.188086E-1,8.796892E-1,8.1539236E-2,1.0547079E0,-7.495206E-2,-3.362691E-1,-9.2384225E-1,-1.7526673E-1,3.5577366E-1,-8.280634E-1,-1.4461942E0,-7.791316E-1,-3.1635523E-1,-1.1424823E0,-1.7462682E0,-6.820163E-1,-1.224003E0,-3.8138065E-1,-2.0993996E0,-1.2442384E0,-1.723264E0,-2.0512445E0,-2.3475156E0,-2.8802457E0,-2.5855415E0],"categories":[],"categories_nodes":[],"categories_segments":[],"categories_sizes":[],"default_left":[0,0,0,0,0,0,0,0,0,0,0,0,0,0,0,0,0,0,0,0,0,0,0,0,0,0,0,0,0,0,0,0,0,0,0,0,0,0,0,0,0,0,0,0,0,0,0,0,0,0,0,0,0,0,0,0,0,0,0,0,0,0,0,0,0,0,0,0,0,0,0,0,0,0,0,0,0,0,0,0,0,0,0,0,0,0,0,0,0,0,0,0,0,0,0,0,0,0,0,0,0,0,0,0,0,0,0,0,0,0,0],"id":5,"left_children":[1,3,5,7,9,11,13,15,17,19,21,23,25,27,29,31,33,35,37,39,41,43,45,47,49,51,53,55,57,59,-1,-1,61,63,65,67,69,71,73,75,77,79,81,83,85,87,89,91,93,95,97,99,101,103,105,-1,107,109,-1,-1,-1,-1,-1,-1,-1,-1,-1,-1,-1,-1,-1,-1,-1,-1,-1,-1,-1,-1,-1,-1,-1,-1,-1,-1,-1,-1,-1,-1,-1,-1,-1,-1,-1,-1,-1,-1,-1,-1,-1,-1,-1,-1,-1,-1,-1,-1,-1,-1,-1,-1,-1],"loss_changes":[2.1433792E7,2.742099E6,2.868025E6,3.37282E5,4.6827625E5,3.9475512E5,3.25271E5,6.6193E4,2.09743E5,1.22597E5,7.942678E4,4.707078E4,5.617325E4,5.14145E4,2.9446E4,1.4430375E4,1.7479E4,5.283825E4,1.411925E5,4.596325E4,2.1416825E5,4.3619156E4,2.5698008E4,2.5174094E4,2.5544719E4,1.71615E4,1.1684125E4,5.78925E3,2.6395E3,3.4575E2,0E0,0E0,6.5989375E3,1.0898525E5,2.656125E3,3.653125E4,3.4416625E4,2.7631875E4,2.55675E5,3.03685E4,8.5688125E3,5.66305E4,3.4632875E4,8.192E3,4.211822E4,3.3019305E4,7.7315674E3,4.4237676E3,1.6868047E4,4.2149062E3,1.4973344E4,1.9775312E3,1.62590625E4,5.9496875E2,7.3961875E3,0E0,3.954625E3,4.89E2,0E0,0E0,0E0,0E0,0E0,0E0,0E0,0E0,0E0,0E0,0E0,0E0,0E0,0E0,0E0,0E0,0E0,0E0,0E0,0E0,0E0,0E0,0E0,0E0,0E0,0E0,0E0,0E0,0E0,0E0,0E0,0E0,0E0,0E0,0E0,0E0,0E0,0E0,0E0,0E0,0E0,0E0,0E0,0E0,0E0,0E0,0E0,0E0,0E0,0E0,0E0,0E0,0E0],"parents":[2147483647,0,0,1,1,2,2,3,3,4,4,5,5,6,6,7,7,8,8,9,9,10,10,11,11,12,12,13,13,14,14,15,15,16,16,17,17,18,18,19,19,20,20,21,21,22,22,23,23,24,24,25,25,26,26,27,27,28,28,29,29,32,32,33,33,34,34,35,35,36,36,37,37,38,38,39,39,40,40,41,41,42,42,43,43,44,44,45,45,46,46,47,47,48,48,49,49,50,50,51,51,52,52,53,53,54,54,56,56,57,57],"right_children":[2,4,6,8,10,12,14,16,18,20,22,24,26,28,30,32,34,36,38,40,42,44,46,48,50,52,54,56,58,60,-1,-1,62,64,66,68,70,72,74,76,78,80,82,84,86,88,90,92,94,96,98,100,102,104,106,-1,108,110,-1,-1,-1,-1,-1,-1,-1,-1,-1,-1,-1,-1,-1,-1,-1,-1,-1,-1,-1,-1,-1,-1,-1,-1,-1,-1,-1,-1,-1,-1,-1,-1,-1,-1,-1,-1,-1,-1,-1,-1,-1,-1,-1,-1,-1,-1,-1,-1,-1,-1,-1,-1,-1],"split_conditions":[-7.7569276E-2,-1.0460719E0,8.5286427E-1,-1.6786174E0,-6.13201E-1,3.6737406E-1,1.323207E0,-1.7296532E0,3.8362694E-1,6.4731365E-1,-3.0268094E-1,1.3874044E-1,6.099798E-1,1.0947952E0,1.5379132E0,-1.4035301E0,-3.167456E-1,5.174204E-1,-7.2437876E-1,2.0562068E-1,6.081002E-1,2.6468673E-1,-1.2147939E-1,-6.101038E-1,-6.3017744E-1,-5.93371E-1,-4.3984336E-1,-3.6631727E-1,1.2028906E0,1.4181901E0,-3.8158002E0,5.0691595E0,-6.860905E-1,-7.6420194E-1,-7.033481E-1,4.1202423E-1,1.3725536E-1,-7.5436497E-1,-6.222129E-1,-5.9786916E-1,6.394181E-1,-2.9937175E-1,-7.702607E-1,-2.9128969E-2,7.773397E-1,8.078735E-1,-9.403689E-1,-1.6181082E-1,-2.8359184E-1,-5.1545214E-2,-3.229508E-1,-9.037276E-1,-3.3917287E-1,-2.0016835E0,-1.7663303E-1,-2.5525787E0,9.7492784E-1,-1.8131018E-1,-2.9609506E0,-3.1934934E0,-3.4430635E0,8.503286E0,5.557827E0,4.198718E0,8.33819E0,2.7446682E0,4.162262E0,2.0761073E0,5.8085685E0,3.3392746E0,1.9558672E0,2.8276508E0,1.636204E0,3.3547146E0,4.969133E0,2.462316E-1,1.462008E0,4.5633035E0,1.1281949E0,4.8788524E0,2.892181E0,5.479013E0,1.8689528E0,8.1526655E-1,3.3938894E-1,1.6995497E0,9.188086E-1,8.796892E-1,8.1539236E-2,1.0547079E0,-7.495206E-2,-3.362691E-1,-9.2384225E-1,-1.7526673E-1,3.5577366E-1,-8.280634E-1,-1.4461942E0,-7.791316E-1,-3.1635523E-1,-1.1424823E0,-1.7462682E0,-6.820163E-1,-1.224003E0,-3.8138065E-1,-2.0993996E0,-1.2442384E0,-1.723264E0,-2.0512445E0,-2.3475156E0,-2.8802457E0,-2.5855415E0],"split_indices":[24,24,24,24,24,24,24,24,114,134,24,24,24,24,24,147,139,138,122,142,135,168,103,142,143,142,143,122,24,24,0,0,92,147,145,143,103,123,139,118,97,123,142,147,114,171,166,153,118,99,131,168,134,87,122,0,24,122,0,0,0,0,0,0,0,0,0,0,0,0,0,0,0,0,0,0,0,0,0,0,0,0,0,0,0,0,0,0,0,0,0,0,0,0,0,0,0,0,0,0,0,0,0,0,0,0,0,0,0,0,0],"split_type":[0,0,0,0,0,0,0,0,0,0,0,0,0,0,0,0,0,0,0,0,0,0,0,0,0,0,0,0,0,0,0,0,0,0,0,0,0,0,0,0,0,0,0,0,0,0,0,0,0,0,0,0,0,0,0,0,0,0,0,0,0,0,0,0,0,0,0,0,0,0,0,0,0,0,0,0,0,0,0,0,0,0,0,0,0,0,0,0,0,0,0,0,0,0,0,0,0,0,0,0,0,0,0,0,0,0,0,0,0,0,0],"sum_hessian":[1.263E4,6.007E3,6.623E3,2.514E3,3.493E3,3.369E3,3.254E3,2.05E2,2.309E3,1.554E3,1.939E3,1.62E3,1.749E3,1.745E3,1.509E3,5.3E1,1.52E2,7.08E2,1.601E3,7.58E2,7.96E2,1.1E3,8.39E2,7.64E2,8.56E2,8.78E2,8.71E2,8.73E2,8.72E2,7.79E2,7.3E2,1.7E1,3.6E1,9.4E1,5.8E1,4.22E2,2.86E2,2.13E2,1.388E3,7.42E2,1.6E1,1.58E2,6.38E2,3.68E2,7.32E2,5.41E2,2.98E2,1.4E2,6.24E2,1.42E2,7.14E2,1.58E2,7.2E2,2.12E2,6.59E2,2.04E2,6.69E2,4.17E2,4.55E2,3.43E2,4.36E2,2.4E1,1.2E1,7.2E1,2.2E1,1.3E1,4.5E1,4.16E2,6E0,2.23E2,6.3E1,1.23E2,9E1,1.061E3,3.27E2,5.6E1,6.86E2,1.3E1,3E0,8.4E1,7.4E1,6E0,6.32E2,1.68E2,2E2,2.88E2,4.44E2,3.26E2,2.15E2,1.5E1,2.83E2,5.3E1,8.7E1,3.78E2,2.46E2,4.6E1,9.6E1,3.11E2,4.03E2,2.4E1,1.34E2,1.94E2,5.26E2,1E0,2.11E2,1.1E2,5.49E2,3.44E2,3.25E2,1.55E2,2.62E2],"tree_param":{"num_deleted":"0","num_feature":"193","num_nodes":"111","size_leaf_vector":"1"}},{"base_weights":[-1.2982725E-1,4.0896038E1,-3.7025177E1,6.3479153E1,2.3103537E1,-1.6988337E1,-5.6726482E1,8.035522E1,5.6021053E1,3.535001E1,1.438194E1,-7.3212676E0,-2.6943998E1,-4.6563644E1,-6.656749E1,1.1497822E2,7.536513E1,6.176671E1,4.4927338E1,4.1007538E1,2.3632206E1,2.028821E1,7.93425E0,-1.5628902E0,-1.152332E1,-2.179084E1,-3.1846184E1,-4.180808E1,-5.1664024E1,-6.1045223E1,-7.1279655E1,9.4351425E1,1.3330545E2,5.89925E1,8.162286E1,7.520832E1,5.451073E1,5.844706E1,4.0534904E1,3.273968E1,5.613268E1,2.925288E1,1.4784238E1,5.1005397E0,2.299878E1,-5.2370663E0,1.0249572E1,-9.234506E0,2.6036818E0,-2.2409079E1,-9.487314E0,9.2792857E-1,-2.2278952E1,-3.809617E1,-2.9384972E1,-2.3779962E0,-4.0238655E1,-2.8126385E0,-5.0052475E1,-2.9379838E0,-3.180677E0,-3.4451928E0,-3.7341049E0,2.3148975E0,4.876176E0,7.8990297E0,4.735989E0,2.6101758E0,4.763536E0,3.5497253E0,4.9536815E0,4.102544E0,2.1713636E0,2.6492708E0,6.714586E0,2.5154188E0,4.4798064E0,1.6206719E0,2.470735E0,1.7693017E0,3.8249856E-1,7.525059E-1,3.3114471E0,5.767705E-1,1.7551489E0,8.2789993E-1,-6.824983E-1,1.4008584E0,2.3839863E-3,1.7822026E0,9.694628E-1,-3.9008263E-1,7.563039E-1,1.818675E0,4.5873734E-1,7.3224753E-1,-5.417332E-1,-5.6323048E-2,9.240228E-1,-8.228783E-1,-1.4032868E0,-1.0814356E-1,-5.7759225E-1,-1.5412767E0,-1.0199838E0,-1.9540617E0,-1.2549928E0,-4.829235E-1,-1.5316814E0,-1.8272175E0,-2.1207912E0,-2.3490212E0,-2.5982835E0],"categories":[],"categories_nodes":[],"categories_segments":[],"categories_sizes":[],"default_left":[0,0,0,0,0,0,0,0,0,0,0,0,0,0,0,0,0,0,0,0,0,0,0,0,0,0,0,0,0,0,0,0,0,0,0,0,0,0,0,0,0,0,0,0,0,0,0,0,0,0,0,0,0,0,0,0,0,0,0,0,0,0,0,0,0,0,0,0,0,0,0,0,0,0,0,0,0,0,0,0,0,0,0,0,0,0,0,0,0,0,0,0,0,0,0,0,0,0,0,0,0,0,0,0,0,0,0,0,0,0,0,0,0],"id":6,"left_children":[1,3,5,7,9,11,13,15,17,19,21,23,25,27,29,31,33,35,37,39,41,43,45,47,49,51,53,55,57,59,61,63,65,67,69,71,73,75,77,79,81,83,85,87,89,91,93,95,97,99,101,-1,103,105,107,-1,109,-1,111,-1,-1,-1,-1,-1,-1,-1,-1,-1,-1,-1,-1,-1,-1,-1,-1,-1,-1,-1,-1,-1,-1,-1,-1,-1,-1,-1,-1,-1,-1,-1,-1,-1,-1,-1,-1,-1,-1,-1,-1,-1,-1,-1,-1,-1,-1,-1,-1,-1,-1,-1,-1,-1,-1],"loss_changes":[1.9017672E7,2.388903E6,2.61032E6,3.25386E5,3.55058E5,3.1557306E5,3.30442E5,1.29725E5,1.13297E5,9.0781625E4,7.394619E4,4.029421E4,4.0129E4,3.77155E4,3.9678E4,2.4847625E4,6.7211E4,1.12646E5,3.4746125E4,1.14711125E5,2.209589E4,4.166747E4,2.8475793E4,2.2526938E4,2.1130828E4,1.599225E4,1.15864375E4,5.8135E3,3.019E3,8.76E2,2.1855E3,3.1063438E3,3.26415E4,4.3792438E4,8.681575E4,8.7119E4,8.792575E4,3.3772906E4,3.2653812E4,3.9899E4,1.3505112E5,2.8202172E4,9.203535E3,1.7946812E4,3.8607875E4,7.4292334E3,2.1932648E4,9.634975E3,2.7085559E4,4.621617E3,1.226882E4,0E0,1.19311875E4,1.9635938E3,1.440925E4,0E0,3.91125E3,0E0,1.044E3,0E0,0E0,0E0,0E0,0E0,0E0,0E0,0E0,0E0,0E0,0E0,0E0,0E0,0E0,0E0,0E0,0E0,0E0,0E0,0E0,0E0,0E0,0E0,0E0,0E0,0E0,0E0,0E0,0E0,0E0,0E0,0E0,0E0,0E0,0E0,0E0,0E0,0E0,0E0,0E0,0E0,0E0,0E0,0E0,0E0,0E0,0E0,0E0,0E0,0E0,0E0,0E0,0E0,0E0],"parents":[2147483647,0,0,1,1,2,2,3,3,4,4,5,5,6,6,7,7,8,8,9,9,10,10,11,11,12,12,13,13,14,14,15,15,16,16,17,17,18,18,19,19,20,20,21,21,22,22,23,23,24,24,25,25,26,26,27,27,28,28,29,29,30,30,31,31,32,32,33,33,34,34,35,35,36,36,37,37,38,38,39,39,40,40,41,41,42,42,43,43,44,44,45,45,46,46,47,47,48,48,49,49,50,50,52,52,53,53,54,54,56,56,58,58],"right_children":[2,4,6,8,10,12,14,16,18,20,22,24,26,28,30,32,34,36,38,40,42,44,46,48,50,52,54,56,58,60,62,64,66,68,70,72,74,76,78,80,82,84,86,88,90,92,94,96,98,100,102,-1,104,106,108,-1,110,-1,112,-1,-1,-1,-1,-1,-1,-1,-1,-1,-1,-1,-1,-1,-1,-1,-1,-1,-1,-1,-1,-1,-1,-1,-1,-1,-1,-1,-1,-1,-1,-1,-1,-1,-1,-1,-1,-1,-1,-1,-1,-1,-1,-1,-1,-1,-1,-1,-1,-1,-1,-1,-1,-1,-1],"split_conditions":[-8.757204E-2,-1.0045785E0,8.126206E-1,-1.5161695E0,-6.2582874E-1,3.6737406E-1,1.2703028E0,-1.7110718E0,-2.4764493E-1,-1.127834E-2,-3.4621486E-1,9.812025E-2,5.8392787E-1,1.0544355E0,1.4858385E0,-9.461866E-1,3.9632735E-1,9.454346E-1,-4.6101934E-1,-5.9786916E-1,-6.35203E-1,-7.7998483E-1,-7.316543E-1,-6.593412E-3,-5.637809E-1,-1.3194999E0,-4.212621E-1,-4.2452174E-1,-3.6274916E-1,1.3905655E0,1.6324028E0,-1.8419877E-2,-3.167456E-1,6.989201E-1,-7.935613E-1,-3.625305E-1,-3.5110578E-1,-4.7250575E-1,-3.615909E-2,-5.541811E-1,-6.412295E-1,-1.0159209E0,5.384066E-1,-3.5366377E-1,-4.5206493E-1,9.8810387E-1,-6.531822E-1,-1.113751E0,-2.5864856E-2,2.2165552E-1,-2.6532504E-1,9.2792857E-1,-4.5860225E-1,-2.5823525E-1,-3.5134286E-1,-2.3779962E0,9.058817E-1,-2.8126385E0,1.1351031E0,-2.9379838E0,-3.180677E0,-3.4451928E0,-3.7341049E0,2.3148975E0,4.876176E0,7.8990297E0,4.735989E0,2.6101758E0,4.763536E0,3.5497253E0,4.9536815E0,4.102544E0,2.1713636E0,2.6492708E0,6.714586E0,2.5154188E0,4.4798064E0,1.6206719E0,2.470735E0,1.7693017E0,3.8249856E-1,7.525059E-1,3.3114471E0,5.767705E-1,1.7551489E0,8.2789993E-1,-6.824983E-1,1.4008584E0,2.3839863E-3,1.7822026E0,9.694628E-1,-3.9008263E-1,7.563039E-1,1.818675E0,4.5873734E-1,7.3224753E-1,-5.417332E-1,-5.6323048E-2,9.240228E-1,-8.228783E-1,-1.4032868E0,-1.0814356E-1,-5.7759225E-1,-1.5412767E0,-1.0199838E0,-1.9540617E0,-1.2549928E0,-4.829235E-1,-1.5316814E0,-1.8272175E0,-2.1207912E0,-2.3490212E0,-2.5982835E0],"split_indices":[24,24,24,24,24,24,24,24,136,139,24,24,24,24,24,130,114,164,94,118,142,122,122,170,120,170,142,122,123,24,24,84,139,95,102,146,102,140,102,147,122,122,144,166,122,141,122,94,94,95,143,0,120,143,142,0,24,0,24,0,0,0,0,0,0,0,0,0,0,0,0,0,0,0,0,0,0,0,0,0,0,0,0,0,0,0,0,0,0,0,0,0,0,0,0,0,0,0,0,0,0,0,0,0,0,0,0,0,0,0,0,0,0],"split_type":[0,0,0,0,0,0,0,0,0,0,0,0,0,0,0,0,0,0,0,0,0,0,0,0,0,0,0,0,0,0,0,0,0,0,0,0,0,0,0,0,0,0,0,0,0,0,0,0,0,0,0,0,0,0,0,0,0,0,0,0,0,0,0,0,0,0,0,0,0,0,0,0,0,0,0,0,0,0,0,0,0,0,0,0,0,0,0,0,0,0,0,0,0,0,0,0,0,0,0,0,0,0,0,0,0,0,0,0,0,0,0,0,0],"sum_hessian":[1.2562E4,5.948E3,6.614E3,2.62E3,3.328E3,3.28E3,3.334E3,8E2,1.82E3,1.383E3,1.945E3,1.665E3,1.615E3,1.643E3,1.691E3,9.8E1,7.02E2,1.196E3,6.24E2,9.31E2,4.52E2,1.014E3,9.31E2,7.03E2,9.62E2,7.9E2,8.25E2,8.55E2,7.88E2,7.85E2,9.06E2,4.9E1,4.9E1,1.97E2,5.05E2,4.16E2,7.8E2,1.5E2,4.74E2,6.04E2,3.27E2,2.75E2,1.77E2,1.54E2,8.6E2,1.39E2,7.92E2,2.47E2,4.56E2,1.5E2,8.12E2,9E0,7.81E2,2.29E2,5.96E2,1.77E2,6.78E2,1.96E2,5.92E2,4.28E2,3.57E2,5.46E2,3.6E2,4E0,4.5E1,2.8E1,2.1E1,1.68E2,2.9E1,3.17E2,1.88E2,3.41E2,7.5E1,7.67E2,1.3E1,1.21E2,2.9E1,2.5E2,2.24E2,5.46E2,5.8E1,6.5E1,2.62E2,6.9E1,2.06E2,1.67E2,1E1,2.7E1,1.27E2,1.89E2,6.71E2,1.24E2,1.5E1,3E1,7.62E2,1.5E1,2.32E2,3.7E2,8.6E1,7.5E1,7.5E1,1.79E2,6.33E2,1.38E2,6.43E2,2.11E2,1.8E1,3.6E1,5.6E2,2.58E2,4.2E2,2.37E2,3.55E2],"tree_param":{"num_deleted":"0","num_feature":"193","num_nodes":"113","size_leaf_vector":"1"}},{"base_weights":[-1.5651003E-1,4.037834E1,-3.400938E1,6.0937714E1,2.4570498E1,-1.3986074E1,-5.2779045E1,8.523355E1,5.6343773E1,3.663772E1,1.6866758E1,-3.726907E0,-2.209185E1,-4.242628E1,-6.2413567E1,1.2644583E2,7.873713E1,4.3967846E1,6.206027E1,2.6463533E1,4.5645206E1,7.451003E0,2.0838749E1,-1.5012996E1,-1.6271274E0,-1.691028E1,-2.7559448E1,-3.7756355E1,-4.7117744E1,-5.6666798E1,-6.710689E1,4.9117293E0,1.4385959E2,8.932959E1,6.3114487E1,4.2020557E1,9.2215485E1,6.4230606E1,3.0121471E1,-6.6371775E-1,2.8263485E1,3.671009E1,7.878065E1,2.7373104E0,6.539607E0,1.5089709E1,2.8227167E1,2.016884E0,-1.7676027E1,2.9676407E1,-2.217879E0,-2.6139967E1,-1.4820517E1,-3.4729164E1,-2.558178E1,-4.351136E1,-3.6205776E1,-2.5838442E0,-4.5557716E1,-2.7187834E0,-2.95027E0,-3.1853178E0,-3.488491E0,8.083917E0,4.919187E0,3.6438172E0,6.830758E0,3.3107426E0,1.8211364E0,2.0417874E0,5.6408515E0,2.5502315E0,4.998399E0,3.8136404E0,2.7743568E0,2.7424412E0,1.1934329E0,9.372023E-1,-4.132246E-1,1.3347896E0,3.4549782E0,1.6882721E0,3.0710063E0,4.327173E0,1.6428537E0,5.4780968E-2,6.095298E-1,4.3478104E-1,1.1916789E0,1.8342398E0,6.0116285E-1,-1.0275354E-1,1.2208227E0,-9.8190594E-1,-1.617167E-1,-2.8232056E-1,1.8704985E0,8.4984235E-2,-2.680126E-1,-1.2305037E0,-1.8702964E0,-3.5770404E-1,-8.7773293E-1,-3.5008582E-1,-1.749209E0,-4.916049E-1,-1.343163E0,-8.7877697E-1,-2.2003288E0,-1.8254002E0,-3.0332193E-1,-2.2841816E0,-7.0422566E-1],"categories":[],"categories_nodes":[],"categories_segments":[],"categories_sizes":[],"default_left":[0,0,0,0,0,0,0,0,0,0,0,0,0,0,0,0,0,0,0,0,0,0,0,0,0,0,0,0,0,0,0,0,0,0,0,0,0,0,0,0,0,0,0,0,0,0,0,0,0,0,0,0,0,0,0,0,0,0,0,0,0,0,0,0,0,0,0,0,0,0,0,0,0,0,0,0,0,0,0,0,0,0,0,0,0,0,0,0,0,0,0,0,0,0,0,0,0,0,0,0,0,0,0,0,0,0,0,0,0,0,0,0,0],"id":7,"left_children":[1,3,5,7,9,11,13,15,17,19,21,23,25,27,29,31,33,35,37,39,41,43,45,47,49,51,53,55,57,59,61,-1,63,65,67,69,71,73,75,77,79,81,83,-1,85,87,89,91,93,95,97,99,101,103,105,107,109,-1,111,-1,-1,-1,-1,-1,-1,-1,-1,-1,-1,-1,-1,-1,-1,-1,-1,-1,-1,-1,-1,-1,-1,-1,-1,-1,-1,-1,-1,-1,-1,-1,-1,-1,-1,-1,-1,-1,-1,-1,-1,-1,-1,-1,-1,-1,-1,-1,-1,-1,-1,-1,-1,-1,-1],"loss_changes":[1.7277636E7,1.86075E6,2.577837E6,2.73115E5,3.00674E5,2.7608712E5,3.50545E5,9.553075E4,1.45627E5,1.14446625E5,7.389531E4,3.4740977E4,5.2087438E4,3.5685E4,4.56085E4,1.14136875E4,5.112225E4,5.8697E4,9.73285E4,2.907125E4,1.9488212E5,2.5030627E4,5.8701062E4,1.0466406E4,2.2959682E4,1.8032469E4,1.1887125E4,6.11675E3,3.684E3,1.239E3,4.638E3,0E0,8.4031875E3,1.4720025E5,9.3393125E3,4.924425E4,2.8883125E3,1.368575E5,1.307007E4,5.760443E3,3.387753E4,3.6344625E4,4.7422375E4,0E0,1.7798945E4,4.3681375E4,8.288325E4,2.968899E3,5.57534E3,6.49417E3,1.4978612E4,2.0956953E3,1.6245047E4,1.1126719E3,1.406575E4,1.51275E3,6.0180625E3,0E0,1.897E3,0E0,0E0,0E0,0E0,0E0,0E0,0E0,0E0,0E0,0E0,0E0,0E0,0E0,0E0,0E0,0E0,0E0,0E0,0E0,0E0,0E0,0E0,0E0,0E0,0E0,0E0,0E0,0E0,0E0,0E0,0E0,0E0,0E0,0E0,0E0,0E0,0E0,0E0,0E0,0E0,0E0,0E0,0E0,0E0,0E0,0E0,0E0,0E0,0E0,0E0,0E0,0E0,0E0,0E0],"parents":[2147483647,0,0,1,1,2,2,3,3,4,4,5,5,6,6,7,7,8,8,9,9,10,10,11,11,12,12,13,13,14,14,15,15,16,16,17,17,18,18,19,19,20,20,21,21,22,22,23,23,24,24,25,25,26,26,27,27,28,28,29,29,30,30,32,32,33,33,34,34,35,35,36,36,37,37,38,38,39,39,40,40,41,41,42,42,44,44,45,45,46,46,47,47,48,48,49,49,50,50,51,51,52,52,53,53,54,54,55,55,56,56,58,58],"right_children":[2,4,6,8,10,12,14,16,18,20,22,24,26,28,30,32,34,36,38,40,42,44,46,48,50,52,54,56,58,60,62,-1,64,66,68,70,72,74,76,78,80,82,84,-1,86,88,90,92,94,96,98,100,102,104,106,108,110,-1,112,-1,-1,-1,-1,-1,-1,-1,-1,-1,-1,-1,-1,-1,-1,-1,-1,-1,-1,-1,-1,-1,-1,-1,-1,-1,-1,-1,-1,-1,-1,-1,-1,-1,-1,-1,-1,-1,-1,-1,-1,-1,-1,-1,-1,-1,-1,-1,-1,-1,-1,-1,-1,-1,-1],"split_conditions":[-1.5607743E-1,-1.0460719E0,7.5732785E-1,-1.6240503E0,-6.91072E-1,2.4926513E-1,1.2316364E0,-1.7296532E0,3.8362694E-1,6.323669E-1,9.894659E-2,-6.6568065E-1,5.159279E-1,9.9872786E-1,1.4586213E0,-1.1888385E0,-7.369164E-1,8.420994E-1,-1.6078311E-1,-8.6496615E-1,-5.9786916E-1,-9.3721575E-1,-5.749924E-1,-5.7831997E-1,-1.4658365E0,-4.885581E-1,-4.1572136E-1,-5.3910065E-1,-3.6274916E-1,1.3510413E0,1.5812365E0,4.9117293E0,-7.4948853E-1,-8.471149E-1,-2.0383261E-1,4.1202423E-1,-4.8053417E-1,1.0658231E0,-7.781225E-1,-7.065292E-1,1.2793264E-1,4.3330643E-1,-2.3319168E-1,2.7373104E0,4.5127395E-1,2.1518229E-1,-1.6498174E-1,7.8449205E-2,7.565371E-1,-1.4249071E0,2.00793E-2,7.443687E-1,-2.793858E-1,-1.2332107E0,-3.51398E-1,-1.4751271E0,1.4480473E0,-2.5838442E0,2.9645908E0,-2.7187834E0,-2.95027E0,-3.1853178E0,-3.488491E0,8.083917E0,4.919187E0,3.6438172E0,6.830758E0,3.3107426E0,1.8211364E0,2.0417874E0,5.6408515E0,2.5502315E0,4.998399E0,3.8136404E0,2.7743568E0,2.7424412E0,1.1934329E0,9.372023E-1,-4.132246E-1,1.3347896E0,3.4549782E0,1.6882721E0,3.0710063E0,4.327173E0,1.6428537E0,5.4780968E-2,6.095298E-1,4.3478104E-1,1.1916789E0,1.8342398E0,6.0116285E-1,-1.0275354E-1,1.2208227E0,-9.8190594E-1,-1.617167E-1,-2.8232056E-1,1.8704985E0,8.4984235E-2,-2.680126E-1,-1.2305037E0,-1.8702964E0,-3.5770404E-1,-8.7773293E-1,-3.5008582E-1,-1.749209E0,-4.916049E-1,-1.343163E0,-8.7877697E-1,-2.2003288E0,-1.8254002E0,-3.0332193E-1,-2.2841816E0,-7.0422566E-1],"split_indices":[24,24,24,24,24,24,24,24,114,134,112,142,24,24,24,102,103,95,146,102,118,114,138,99,146,123,123,143,123,24,24,0,92,102,123,143,98,134,98,143,142,142,99,0,119,142,116,98,146,95,24,167,134,170,123,134,99,0,129,0,0,0,0,0,0,0,0,0,0,0,0,0,0,0,0,0,0,0,0,0,0,0,0,0,0,0,0,0,0,0,0,0,0,0,0,0,0,0,0,0,0,0,0,0,0,0,0,0,0,0,0,0,0],"split_type":[0,0,0,0,0,0,0,0,0,0,0,0,0,0,0,0,0,0,0,0,0,0,0,0,0,0,0,0,0,0,0,0,0,0,0,0,0,0,0,0,0,0,0,0,0,0,0,0,0,0,0,0,0,0,0,0,0,0,0,0,0,0,0,0,0,0,0,0,0,0,0,0,0,0,0,0,0,0,0,0,0,0,0,0,0,0,0,0,0,0,0,0,0,0,0,0,0,0,0,0,0,0,0,0,0,0,0,0,0,0,0,0,0],"sum_hessian":[1.2589E4,5.729E3,6.86E3,2.489E3,3.24E3,3.32E3,3.54E3,3.93E2,2.096E3,1.261E3,1.979E3,1.466E3,1.854E3,1.709E3,1.831E3,5.1E1,3.42E2,6.65E2,1.431E3,5.94E2,6.67E2,5.88E2,1.391E3,2.29E2,1.237E3,9.54E2,9E2,8.61E2,8.48E2,8.29E2,1.002E3,2.2E1,2.9E1,2.01E2,1.41E2,6.41E2,2.4E1,1.339E3,9.2E1,3.7E1,5.57E2,5.27E2,1.4E2,1E1,5.78E2,7.84E2,6.07E2,3.1E1,1.98E2,2.2E1,1.215E3,1.74E2,7.8E2,1.91E2,7.09E2,1.77E2,6.84E2,2.08E2,6.4E2,4.31E2,3.98E2,4.51E2,5.51E2,1.9E1,1E1,1.51E2,5E1,1.25E2,1.6E1,6.32E2,9E0,5E0,1.9E1,5.6E2,7.79E2,1.7E1,7.5E1,1E1,2.7E1,5.38E2,1.9E1,4.73E2,5.4E1,1.19E2,2.1E1,2.95E2,2.83E2,4.54E2,3.3E2,3.98E2,2.09E2,2.7E1,4E0,1.74E2,2.4E1,4E0,1.8E1,5.41E2,6.74E2,1.56E2,1.8E1,2.06E2,5.74E2,2E0,1.89E2,5.4E1,6.55E2,4E0,1.73E2,6.77E2,7E0,6.37E2,3E0],"tree_param":{"num_deleted":"0","num_feature":"193","num_nodes":"113","size_leaf_vector":"1"}},{"base_weights":[-5.135691E-2,3.5855007E1,-3.4492146E1,5.7645107E1,2.009835E1,-1.713039E1,-5.210818E1,7.157457E1,4.9897976E1,2.9760618E1,9.625791E0,-8.015124E0,-2.5777468E1,-4.373344E1,-6.1026733E1,1.18353065E2,6.837741E1,5.6339737E1,3.9113182E1,1.9587725E1,3.3964043E1,4.51911E0,1.5300596E1,-3.5705771E0,-1.2988962E1,-2.1845678E1,-3.1152647E1,-3.9480114E1,-4.8362125E1,-5.7339672E1,-3.2891133E0,9.066429E1,1.3395813E2,4.093873E1,7.1883156E1,4.84835E1,7.145259E1,7.269676E1,3.293955E1,1.851941E1,3.7712407E0,6.5447307E0,3.5535645E1,3.4477352E1,3.4610326E0,5.644305E1,1.1440233E1,-9.661909E-1,-1.2355349E1,-2.2527697E1,-1.1078751E1,-4.8052697E0,-2.2748041E1,-3.6305584E1,-2.8640366E1,-4.394986E1,-3.7927456E1,-2.5783339E0,-4.6420933E1,-2.7432299E0,-2.9765797E0,4.7541857E0,2.2398138E0,7.385489E0,4.764582E0,2.9840776E-1,2.2147446E0,3.988191E0,3.1887424E0,1.6656353E0,2.679674E0,2.0955112E0,4.28697E0,2.1531248E0,5.299193E0,1.3265661E0,2.3492954E0,7.4888146E-1,1.5613282E0,-5.1373917E-1,1.0338849E0,2.1949308E0,1.4319164E0,2.2789443E0,5.07461E-1,2.4790864E-1,-7.412226E-1,3.2018704E0,-1.0725466E-1,5.133557E-1,3.6189735E0,-2.6029134E-1,3.662381E-1,7.992405E-1,-6.757042E-1,-1.3736254E0,-7.9123545E-1,-7.3983693E-1,-3.2007754E-1,9.432041E-1,-5.597105E-1,-1.4656935E0,-1.0308887E0,-2.0735951E-1,-1.8358883E0,-7.4507815E-1,-1.5105275E0,-2.2117918E0,-1.1460025E0,-1.4964851E0,-1.9380331E0,-1.5826001E0,-2.374698E0],"categories":[],"categories_nodes":[],"categories_segments":[],"categories_sizes":[],"default_left":[0,0,0,0,0,0,0,0,0,0,0,0,0,0,0,0,0,0,0,0,0,0,0,0,0,0,0,0,0,0,0,0,0,0,0,0,0,0,0,0,0,0,0,0,0,0,0,0,0,0,0,0,0,0,0,0,0,0,0,0,0,0,0,0,0,0,0,0,0,0,0,0,0,0,0,0,0,0,0,0,0,0,0,0,0,0,0,0,0,0,0,0,0,0,0,0,0,0,0,0,0,0,0,0,0,0,0,0,0,0,0,0,0],"id":8,"left_children":[1,3,5,7,9,11,13,15,17,19,21,23,25,27,29,31,33,35,37,39,41,43,45,47,49,51,53,55,57,59,-1,61,63,65,67,69,71,73,75,77,-1,79,81,83,85,87,89,91,93,95,97,99,101,103,105,107,109,-1,111,-1,-1,-1,-1,-1,-1,-1,-1,-1,-1,-1,-1,-1,-1,-1,-1,-1,-1,-1,-1,-1,-1,-1,-1,-1,-1,-1,-1,-1,-1,-1,-1,-1,-1,-1,-1,-1,-1,-1,-1,-1,-1,-1,-1,-1,-1,-1,-1,-1,-1,-1,-1,-1,-1],"loss_changes":[1.5670747E7,2.128917E6,1.9773145E6,2.77328E5,3.6419525E5,2.5666906E5,2.37088E5,1.30697E5,1.142335E5,7.9425875E4,5.006522E4,3.505868E4,3.4655625E4,3.075175E4,2.34405E4,1.291575E4,8.084125E4,1.20846E5,1.28224875E5,3.1411578E4,5.6821625E4,2.8789387E4,1.294318E5,1.9206367E4,1.3397945E4,1.4790656E4,8.0739375E3,4.370875E3,2.520625E3,1.519E3,0E0,6.056406E2,4.535E3,1.1589719E4,4.41795E4,5.1860125E4,1.4666225E5,9.112056E4,4.6819938E4,2.38805E4,0E0,1.7565264E4,7.096075E4,7.909875E3,2.4219078E4,3.1283125E4,5.287364E4,2.2850883E4,6.5210566E3,3.6752383E3,1.0791281E4,7.772272E3,1.2263625E4,2.8565938E3,9.8614375E3,2.9721875E2,3.191375E3,0E0,6.452125E3,0E0,0E0,0E0,0E0,0E0,0E0,0E0,0E0,0E0,0E0,0E0,0E0,0E0,0E0,0E0,0E0,0E0,0E0,0E0,0E0,0E0,0E0,0E0,0E0,0E0,0E0,0E0,0E0,0E0,0E0,0E0,0E0,0E0,0E0,0E0,0E0,0E0,0E0,0E0,0E0,0E0,0E0,0E0,0E0,0E0,0E0,0E0,0E0,0E0,0E0,0E0,0E0,0E0,0E0],"parents":[2147483647,0,0,1,1,2,2,3,3,4,4,5,5,6,6,7,7,8,8,9,9,10,10,11,11,12,12,13,13,14,14,15,15,16,16,17,17,18,18,19,19,20,20,21,21,22,22,23,23,24,24,25,25,26,26,27,27,28,28,29,29,31,31,32,32,33,33,34,34,35,35,36,36,37,37,38,38,39,39,41,41,42,42,43,43,44,44,45,45,46,46,47,47,48,48,49,49,50,50,51,51,52,52,53,53,54,54,55,55,56,56,58,58],"right_children":[2,4,6,8,10,12,14,16,18,20,22,24,26,28,30,32,34,36,38,40,42,44,46,48,50,52,54,56,58,60,-1,62,64,66,68,70,72,74,76,78,-1,80,82,84,86,88,90,92,94,96,98,100,102,104,106,108,110,-1,112,-1,-1,-1,-1,-1,-1,-1,-1,-1,-1,-1,-1,-1,-1,-1,-1,-1,-1,-1,-1,-1,-1,-1,-1,-1,-1,-1,-1,-1,-1,-1,-1,-1,-1,-1,-1,-1,-1,-1,-1,-1,-1,-1,-1,-1,-1,-1,-1,-1,-1,-1,-1,-1,-1],"split_conditions":[-3.681036E-2,-1.0172882E0,8.5286427E-1,-1.4756219E0,-5.053797E-1,3.9462137E-1,1.3106357E0,-1.7296532E0,-4.6101934E-1,1.6785187E-1,5.741331E-1,1.9406126E-1,6.644817E-1,1.0947952E0,1.5529277E0,-9.461866E-1,-1.370899E-1,-8.199437E-1,-7.781225E-1,1.6737425E-1,-9.3900776E-1,-1.1621015E0,3.4837836E-1,1.2808296E-1,-6.3017744E-1,-1.0682782E0,-3.09777E-1,-3.6631727E-1,-1.8131018E-1,1.4317921E0,-3.2891133E0,-6.025128E-2,-6.860905E-1,-4.303935E-1,1.006036E0,1.09779E0,-7.316543E-1,-3.5312957E-1,5.174204E-1,6.077138E-1,3.7712407E0,-4.7037804E-1,8.988535E-1,2.9418895E-1,6.2340295E-1,-1.4415015E-1,-1.06815495E-1,-1.2645318E-1,-1.4456854E0,-1.0312294E-2,-5.943681E-2,-2.7557585E-1,-4.212621E-1,-2.0119877E0,-1.8131018E-1,-3.2640645E-1,-4.0751728E-1,-2.5783339E0,-2.1351491E-1,-2.7432299E0,-2.9765797E0,4.7541857E0,2.2398138E0,7.385489E0,4.764582E0,2.9840776E-1,2.2147446E0,3.988191E0,3.1887424E0,1.6656353E0,2.679674E0,2.0955112E0,4.28697E0,2.1531248E0,5.299193E0,1.3265661E0,2.3492954E0,7.4888146E-1,1.5613282E0,-5.1373917E-1,1.0338849E0,2.1949308E0,1.4319164E0,2.2789443E0,5.07461E-1,2.4790864E-1,-7.412226E-1,3.2018704E0,-1.0725466E-1,5.133557E-1,3.6189735E0,-2.6029134E-1,3.662381E-1,7.992405E-1,-6.757042E-1,-1.3736254E0,-7.9123545E-1,-7.3983693E-1,-3.2007754E-1,9.432041E-1,-5.597105E-1,-1.4656935E0,-1.0308887E0,-2.0735951E-1,-1.8358883E0,-7.4507815E-1,-1.5105275E0,-2.2117918E0,-1.1460025E0,-1.4964851E0,-1.9380331E0,-1.5826001E0,-2.374698E0],"split_indices":[24,24,24,24,24,24,24,24,94,166,114,24,24,24,24,130,114,116,98,142,122,94,134,99,143,170,123,122,122,24,0,113,92,170,134,135,122,143,138,119,0,95,135,139,135,24,138,118,98,101,130,99,142,97,122,143,142,0,143,0,0,0,0,0,0,0,0,0,0,0,0,0,0,0,0,0,0,0,0,0,0,0,0,0,0,0,0,0,0,0,0,0,0,0,0,0,0,0,0,0,0,0,0,0,0,0,0,0,0,0,0,0,0],"split_type":[0,0,0,0,0,0,0,0,0,0,0,0,0,0,0,0,0,0,0,0,0,0,0,0,0,0,0,0,0,0,0,0,0,0,0,0,0,0,0,0,0,0,0,0,0,0,0,0,0,0,0,0,0,0,0,0,0,0,0,0,0,0,0,0,0,0,0,0,0,0,0,0,0,0,0,0,0,0,0,0,0,0,0,0,0,0,0,0,0,0,0,0,0,0,0,0,0,0,0,0,0,0,0,0,0,0,0,0,0,0,0,0,0],"sum_hessian":[1.267E4,6.203E3,6.467E3,2.602E3,3.601E3,3.258E3,3.209E3,9.27E2,1.675E3,1.872E3,1.729E3,1.587E3,1.671E3,1.658E3,1.551E3,5.7E1,8.7E2,1.046E3,6.29E2,5.49E2,1.323E3,9.11E2,8.18E2,8.39E2,7.48E2,9.68E2,7.03E2,8.69E2,7.89E2,8.81E2,6.7E2,2.3E1,3.4E1,1E2,7.7E2,6.91E2,3.55E2,9.6E1,5.33E2,5.4E2,9E0,7.2E1,1.251E3,3E1,8.81E2,6.9E1,7.49E2,6.48E2,1.91E2,1.23E2,6.25E2,4.9E1,9.19E2,2.26E2,4.77E2,2.17E2,6.52E2,2.88E2,5.01E2,4.26E2,4.55E2,2E1,3E0,2.3E1,1.1E1,9E0,9.1E1,3.86E2,3.84E2,1.76E2,5.15E2,1.17E2,2.38E2,5.2E1,4.4E1,3.68E2,1.65E2,4.24E2,1.16E2,3.3E1,3.9E1,5.63E2,6.88E2,2E1,1E1,8.15E2,6.6E1,6.1E1,8E0,7.36E2,1.3E1,4.29E2,2.19E2,7E0,1.84E2,6.9E1,5.4E1,3.47E2,2.78E2,1E1,3.9E1,2.22E2,6.97E2,3E0,2.23E2,5E1,4.27E2,2.13E2,4E0,6.5E1,5.87E2,3.6E1,4.65E2],"tree_param":{"num_deleted":"0","num_feature":"193","num_nodes":"113","size_leaf_vector":"1"}},{"base_weights":[-1.2426109E-1,3.399106E1,-3.3053493E1,5.096378E1,1.5490379E1,-1.7561771E1,-5.0270916E1,6.2938755E1,4.051928E1,2.165448E1,5.951761E0,-9.065126E0,-2.6364079E1,-4.2625504E1,-5.8168583E1,9.3390945E1,5.953378E1,4.4044907E1,2.8564983E1,5.257833E0,2.3817556E1,9.63195E0,-1.2382098E0,-5.5467024E0,-1.4863098E1,-2.2807867E1,-3.1411133E1,-3.907147E1,-4.698474E1,-5.4682854E1,-3.1243951E0,7.594403E1,1.0549163E2,6.514605E1,4.5997215E1,3.8314808E1,5.2312164E1,2.2812222E1,4.269632E1,1.3947611E1,-4.2502375E0,1.5360308E1,2.6764254E1,3.7925587E0,2.5093956E1,-2.5187442E0,1.8768377E1,-1.7215117E1,-3.2946548E0,-1.2319661E1,-2.2295425E1,-2.9132767E1,-2.0510555E1,-3.6159325E1,-2.9424316E1,-4.3446342E1,-3.7439117E1,-2.5179508E0,-4.5423622E1,-2.5813663E0,-2.814252E0,4.3897686E0,2.8006344E0,7.096748E0,3.6841843E0,3.7568727E0,2.8441226E0,2.4188774E0,7.434253E-1,2.4613254E0,1.6120938E0,1.7070122E0,3.3685539E0,-5.80529E-1,1.2183921E0,1.0501002E0,2.5453136E0,2.9576048E-1,1.1814419E0,-3.8393232E-1,8.92412E-1,6.9648975E-1,3.5951536E0,1.7431103E0,9.5372266E-1,3.7342713E-3,7.7325195E-1,-4.5430666E-1,1.5280062E0,-2.8687617E-1,2.0084997E-1,-3.3663437E-1,1.2102612E0,-7.8406537E-1,-1.7502259E0,2.0229685E-1,-2.9694685E-1,-9.215584E-1,-2.803519E-1,-1.3345093E0,-6.2524E-1,-1.532954E0,-1.0376357E0,-3.0555347E-1,-1.1248225E0,-1.8159847E0,-1.14162445E-1,-3.2483426E-1,-1.514337E0,-3.3993492E-1,-2.178892E0,-1.311182E0,-1.9155778E0,-1.9207004E0,-2.3162477E0],"categories":[],"categories_nodes":[],"categories_segments":[],"categories_sizes":[],"default_left":[0,0,0,0,0,0,0,0,0,0,0,0,0,0,0,0,0,0,0,0,0,0,0,0,0,0,0,0,0,0,0,0,0,0,0,0,0,0,0,0,0,0,0,0,0,0,0,0,0,0,0,0,0,0,0,0,0,0,0,0,0,0,0,0,0,0,0,0,0,0,0,0,0,0,0,0,0,0,0,0,0,0,0,0,0,0,0,0,0,0,0,0,0,0,0,0,0,0,0,0,0,0,0,0,0,0,0,0,0,0,0,0,0,0,0],"id":9,"left_children":[1,3,5,7,9,11,13,15,17,19,21,23,25,27,29,31,33,35,37,39,41,43,45,47,49,51,53,55,57,59,-1,61,63,65,67,69,71,73,75,77,79,81,83,85,87,89,91,93,95,97,99,101,103,105,107,109,111,-1,113,-1,-1,-1,-1,-1,-1,-1,-1,-1,-1,-1,-1,-1,-1,-1,-1,-1,-1,-1,-1,-1,-1,-1,-1,-1,-1,-1,-1,-1,-1,-1,-1,-1,-1,-1,-1,-1,-1,-1,-1,-1,-1,-1,-1,-1,-1,-1,-1,-1,-1,-1,-1,-1,-1,-1,-1],"loss_changes":[1.4224381E7,1.952019E6,1.717643E6,4.03061E5,1.7490981E5,2.5352369E5,1.817425E5,1.50907E5,7.1866E4,6.39995E4,3.0970652E4,3.5168297E4,2.9185625E4,2.22405E4,1.9137E4,2.3656375E4,1.00324E5,6.13795E4,3.1381094E4,1.7575361E4,3.9387625E4,6.978829E4,1.0218064E4,2.8244496E4,1.20505E4,1.3656656E4,5.407625E3,4.529125E3,1.363125E3,1.19175E3,0E0,1.0436219E4,8.9231875E4,7.490575E4,2.90675E4,5.1028E4,1.4683888E5,1.5544328E4,1.9235344E4,8.491977E3,7.8648384E3,3.256571E4,7.300231E4,2.4431242E4,3.98865E4,7.890928E3,3.490455E3,4.1987734E3,1.7571203E4,1.9916484E4,6.7657656E3,2.6765E3,2.0537344E4,9.927656E2,9.472406E3,8.024375E2,5.20875E3,0E0,1.2783125E3,0E0,0E0,0E0,0E0,0E0,0E0,0E0,0E0,0E0,0E0,0E0,0E0,0E0,0E0,0E0,0E0,0E0,0E0,0E0,0E0,0E0,0E0,0E0,0E0,0E0,0E0,0E0,0E0,0E0,0E0,0E0,0E0,0E0,0E0,0E0,0E0,0E0,0E0,0E0,0E0,0E0,0E0,0E0,0E0,0E0,0E0,0E0,0E0,0E0,0E0,0E0,0E0,0E0,0E0,0E0,0E0],"parents":[2147483647,0,0,1,1,2,2,3,3,4,4,5,5,6,6,7,7,8,8,9,9,10,10,11,11,12,12,13,13,14,14,15,15,16,16,17,17,18,18,19,19,20,20,21,21,22,22,23,23,24,24,25,25,26,26,27,27,28,28,29,29,31,31,32,32,33,33,34,34,35,35,36,36,37,37,38,38,39,39,40,40,41,41,42,42,43,43,44,44,45,45,46,46,47,47,48,48,49,49,50,50,51,51,52,52,53,53,54,54,55,55,56,56,58,58],"right_children":[2,4,6,8,10,12,14,16,18,20,22,24,26,28,30,32,34,36,38,40,42,44,46,48,50,52,54,56,58,60,-1,62,64,66,68,70,72,74,76,78,80,82,84,86,88,90,92,94,96,98,100,102,104,106,108,110,112,-1,114,-1,-1,-1,-1,-1,-1,-1,-1,-1,-1,-1,-1,-1,-1,-1,-1,-1,-1,-1,-1,-1,-1,-1,-1,-1,-1,-1,-1,-1,-1,-1,-1,-1,-1,-1,-1,-1,-1,-1,-1,-1,-1,-1,-1,-1,-1,-1,-1,-1,-1,-1,-1,-1,-1,-1,-1],"split_conditions":[-2.2579739E-2,-8.4194696E-1,9.058817E-1,-1.3140396E0,-3.4621486E-1,4.492093E-1,1.323207E0,-1.6940719E0,-1.3556468E-1,-8.532601E-1,-4.0227074E-2,2.745279E-1,7.190863E-1,1.1351031E0,1.5529277E0,-8.8774365E-1,-3.530736E-1,-5.749924E-1,6.7347944E-1,4.6027345E-3,1.6785187E-1,-3.9724624E-1,1.260784E0,-6.6568065E-1,3.6804375E-1,-4.212621E-1,-3.2640645E-1,-3.35656E-1,-2.7849087E-1,1.4034278E0,-3.1243951E0,-1.441569E-1,-3.167456E-1,1.0658231E0,-1.1207723E-1,-1.3552873E0,-5.3525466E-1,-5.772301E-1,-1.0261159E0,8.940969E-2,4.5273653E-1,1.6737425E-1,-1.1257109E-1,3.399618E-1,-5.422118E-1,3.136992E-1,-7.208405E-1,5.2333146E-1,-2.6532504E-1,-1.3669908E-1,6.2709296E-1,1.0806701E0,-2.953204E-1,2.5144684E0,-3.1059074E-1,-2.4855779E-1,-4.0751728E-1,-2.5179508E0,-9.079376E-2,-2.5813663E0,-2.814252E0,4.3897686E0,2.8006344E0,7.096748E0,3.6841843E0,3.7568727E0,2.8441226E0,2.4188774E0,7.434253E-1,2.4613254E0,1.6120938E0,1.7070122E0,3.3685539E0,-5.80529E-1,1.2183921E0,1.0501002E0,2.5453136E0,2.9576048E-1,1.1814419E0,-3.8393232E-1,8.92412E-1,6.9648975E-1,3.5951536E0,1.7431103E0,9.5372266E-1,3.7342713E-3,7.7325195E-1,-4.5430666E-1,1.5280062E0,-2.8687617E-1,2.0084997E-1,-3.3663437E-1,1.2102612E0,-7.8406537E-1,-1.7502259E0,2.0229685E-1,-2.9694685E-1,-9.215584E-1,-2.803519E-1,-1.3345093E0,-6.2524E-1,-1.532954E0,-1.0376357E0,-3.0555347E-1,-1.1248225E0,-1.8159847E0,-1.14162445E-1,-3.2483426E-1,-1.514337E0,-3.3993492E-1,-2.178892E0,-1.311182E0,-1.9155778E0,-1.9207004E0,-2.3162477E0],"split_indices":[24,24,24,24,24,24,24,24,146,122,116,24,24,24,24,147,146,138,138,134,166,130,117,142,102,142,143,122,122,24,0,113,139,134,123,138,140,112,143,144,115,142,140,140,146,147,178,114,143,98,103,130,143,165,143,46,142,0,123,0,0,0,0,0,0,0,0,0,0,0,0,0,0,0,0,0,0,0,0,0,0,0,0,0,0,0,0,0,0,0,0,0,0,0,0,0,0,0,0,0,0,0,0,0,0,0,0,0,0,0,0,0,0,0,0],"split_type":[0,0,0,0,0,0,0,0,0,0,0,0,0,0,0,0,0,0,0,0,0,0,0,0,0,0,0,0,0,0,0,0,0,0,0,0,0,0,0,0,0,0,0,0,0,0,0,0,0,0,0,0,0,0,0,0,0,0,0,0,0,0,0,0,0,0,0,0,0,0,0,0,0,0,0,0,0,0,0,0,0,0,0,0,0,0,0,0,0,0,0,0,0,0,0,0,0,0,0,0,0,0,0,0,0,0,0,0,0,0,0,0,0,0,0],"sum_hessian":[1.266E4,6.218E3,6.442E3,3.242E3,2.976E3,3.392E3,3.05E3,1.508E3,1.734E3,1.807E3,1.169E3,1.727E3,1.665E3,1.553E3,1.497E3,1.49E2,1.359E3,1.337E3,3.97E2,2.11E2,1.596E3,7.73E2,3.96E2,1.076E3,6.51E2,9.8E2,6.85E2,8.61E2,6.92E2,8.36E2,6.61E2,6.4E1,8.5E1,9.58E2,4.01E2,7.93E2,5.44E2,2.84E2,1.13E2,1.1E2,1.01E2,4.14E2,1.182E3,5.62E2,2.11E2,3.73E2,2.3E1,1.73E2,9.03E2,4.87E2,1.64E2,2.58E2,7.22E2,1.97E2,4.88E2,2.27E2,6.34E2,2.09E2,4.83E2,2.99E2,5.37E2,3.8E1,2.6E1,3.8E1,4.7E1,4.3E2,5.28E2,3.72E2,2.9E1,2.81E2,5.12E2,2.48E2,2.96E2,1.2E1,2.72E2,3.2E1,8.1E1,6.1E1,4.9E1,8.8E1,1.3E1,4.05E2,9E0,5.74E2,6.08E2,4.27E2,1.35E2,2.9E1,1.82E2,2.5E2,1.23E2,4E0,1.9E1,1.61E2,1.2E1,2.39E2,6.64E2,2.54E2,2.33E2,1.12E2,5.2E1,2.16E2,4.2E1,8.8E1,6.34E2,1.96E2,1E0,1.8E1,4.7E2,1E0,2.26E2,4.8E1,5.86E2,6E1,4.23E2],"tree_param":{"num_deleted":"0","num_feature":"193","num_nodes":"115","size_leaf_vector":"1"}},{"base_weights":[1.2459868E-1,3.1739763E1,-3.1823112E1,5.004975E1,1.5997074E1,-1.704392E1,-4.759495E1,6.3011044E1,4.267296E1,2.3808876E1,6.800033E0,-9.122172E0,-2.5314768E1,-4.0356323E1,-5.520323E1,9.628589E1,5.956297E1,4.868089E1,3.278015E1,2.799203E1,1.4848181E1,1.0100875E1,-2.1587474E0,-4.3268642E0,-1.2940204E1,-2.2026354E1,-2.9515688E1,-3.7111988E1,-4.5106903E1,-5.164457E1,-2.9550436E0,7.750273E1,1.1276766E2,4.1403015E1,6.3967346E1,4.1545452E1,6.602567E1,6.229155E0,3.1952354E1,2.218701E1,3.6812595E1,1.0633212E1,2.2517748E1,2.941896E0,1.5330487E1,3.7249491E0,-7.708668E0,-1.3894517E1,-2.1935434E0,-1.037763E1,-2.043026E1,-2.0292206E1,-2.8508883E1,-3.4102383E1,-2.7464611E1,-2.0597847E0,-3.563614E1,-2.4089005E0,-4.350465E1,-2.4836128E0,-2.6784732E0,4.1514244E0,2.543286E0,3.690591E0,6.813891E0,1.8279841E0,3.847342E0,2.9448564E0,3.9112194E0,6.583951E0,2.0251486E0,1.6516036E0,3.9515646E0,1.3701384E0,2.3165839E0,8.5381454E-1,1.6872348E0,6.5152884E-1,2.3381908E0,-2.688993E-1,6.5026826E-1,7.5459415E-1,1.5768996E0,-9.283139E-2,7.8278536E-1,2.5464064E-1,1.1747831E0,-4.323474E-1,4.144267E-1,8.153319E-1,-4.655567E-1,-5.133877E-1,-1.0797194E0,-3.1970912E-1,2.4459743E-1,-7.342763E-1,-2.63799E-1,-1.2362353E0,-5.762195E-1,5.8141064E-2,-1.0638179E0,-1.1499594E0,-1.5103205E0,-1.714961E0,1.7590848E-1,-1.6539828E-1,-1.4168446E0,-1.4523529E0,-1.8286484E0,-1.8340901E0,-2.2191417E0],"categories":[],"categories_nodes":[],"categories_segments":[],"categories_sizes":[],"default_left":[0,0,0,0,0,0,0,0,0,0,0,0,0,0,0,0,0,0,0,0,0,0,0,0,0,0,0,0,0,0,0,0,0,0,0,0,0,0,0,0,0,0,0,0,0,0,0,0,0,0,0,0,0,0,0,0,0,0,0,0,0,0,0,0,0,0,0,0,0,0,0,0,0,0,0,0,0,0,0,0,0,0,0,0,0,0,0,0,0,0,0,0,0,0,0,0,0,0,0,0,0,0,0,0,0,0,0,0,0,0,0],"id":10,"left_children":[1,3,5,7,9,11,13,15,17,19,21,23,25,27,29,31,33,35,37,39,41,43,45,47,49,51,53,55,57,59,-1,61,63,65,67,69,71,-1,73,75,77,79,81,83,85,87,89,91,93,95,97,99,101,103,105,-1,107,-1,109,-1,-1,-1,-1,-1,-1,-1,-1,-1,-1,-1,-1,-1,-1,-1,-1,-1,-1,-1,-1,-1,-1,-1,-1,-1,-1,-1,-1,-1,-1,-1,-1,-1,-1,-1,-1,-1,-1,-1,-1,-1,-1,-1,-1,-1,-1,-1,-1,-1,-1,-1,-1],"loss_changes":[1.2742566E7,1.8269825E6,1.4618595E6,2.77553E5,2.4490294E5,2.12118E5,1.649205E5,1.159975E5,1.096075E5,6.870475E4,4.6389938E4,3.0281422E4,2.1245688E4,2.2354E4,1.74345E4,2.1599E4,7.445525E4,1.4106925E5,4.9975312E4,6.3495E4,1.8801164E4,4.2859625E4,1.3841377E4,1.4991924E4,1.7484688E4,9.460281E3,5.582875E3,4.149E3,9.9425E2,3.0025E2,0E0,2.9889688E3,3.5734E4,3.0067625E4,5.13425E4,7.22795E4,1.4199688E5,0E0,4.48515E4,4.431553E4,1.1701069E5,1.4578684E4,1.3456523E4,2.9617715E4,5.52185E4,1.1702473E4,8.541282E3,3.5203047E3,1.7978727E4,1.506493E4,8.66457E3,1.4974125E4,1.0449219E3,1.6757188E3,1.01048125E4,0E0,3.2093125E3,0E0,9.065E2,0E0,0E0,0E0,0E0,0E0,0E0,0E0,0E0,0E0,0E0,0E0,0E0,0E0,0E0,0E0,0E0,0E0,0E0,0E0,0E0,0E0,0E0,0E0,0E0,0E0,0E0,0E0,0E0,0E0,0E0,0E0,0E0,0E0,0E0,0E0,0E0,0E0,0E0,0E0,0E0,0E0,0E0,0E0,0E0,0E0,0E0,0E0,0E0,0E0,0E0,0E0,0E0],"parents":[2147483647,0,0,1,1,2,2,3,3,4,4,5,5,6,6,7,7,8,8,9,9,10,10,11,11,12,12,13,13,14,14,15,15,16,16,17,17,18,18,19,19,20,20,21,21,22,22,23,23,24,24,25,25,26,26,27,27,28,28,29,29,31,31,32,32,33,33,34,34,35,35,36,36,38,38,39,39,40,40,41,41,42,42,43,43,44,44,45,45,46,46,47,47,48,48,49,49,50,50,51,51,52,52,53,53,54,54,56,56,58,58],"right_children":[2,4,6,8,10,12,14,16,18,20,22,24,26,28,30,32,34,36,38,40,42,44,46,48,50,52,54,56,58,60,-1,62,64,66,68,70,72,-1,74,76,78,80,82,84,86,88,90,92,94,96,98,100,102,104,106,-1,108,-1,110,-1,-1,-1,-1,-1,-1,-1,-1,-1,-1,-1,-1,-1,-1,-1,-1,-1,-1,-1,-1,-1,-1,-1,-1,-1,-1,-1,-1,-1,-1,-1,-1,-1,-1,-1,-1,-1,-1,-1,-1,-1,-1,-1,-1,-1,-1,-1,-1,-1,-1,-1,-1],"split_conditions":[5.274105E-3,-9.2246574E-1,8.9311534E-1,-1.4338411E0,-4.1253355E-1,4.6257985E-1,1.323207E0,-1.7110718E0,-5.239248E-1,-3.229508E-1,-1.22079225E-2,2.0602252E-1,7.0403177E-1,1.1474975E0,1.5379132E0,-9.461866E-1,7.8817084E-2,-5.749924E-1,-1.0179302E0,-5.9786916E-1,5.2116895E-1,-8.2483596E-1,-3.2537094E-1,-6.35203E-1,3.6804375E-1,5.796039E-1,-3.2640645E-1,-3.6631727E-1,-2.7849087E-1,1.4317921E0,-2.9550436E0,1.7099022E0,6.081002E-1,6.989201E-1,-4.5116743E-1,1.5506229E-1,-7.2437876E-1,6.229155E0,6.7347944E-1,1.221846E-1,-5.4197735E-1,-1.0159209E0,-8.963544E-1,2.0481417E-1,4.3442857E-1,-5.4350305E-1,-1.1621015E0,5.4910624E-1,-1.2645318E-1,-1.2262396E-1,6.2709296E-1,-1.0682782E0,-7.74458E-1,2.6057182E-2,-3.1059074E-1,-2.0597847E0,-1.1359372E0,-2.4089005E0,-9.079376E-2,-2.4836128E0,-2.6784732E0,4.1514244E0,2.543286E0,3.690591E0,6.813891E0,1.8279841E0,3.847342E0,2.9448564E0,3.9112194E0,6.583951E0,2.0251486E0,1.6516036E0,3.9515646E0,1.3701384E0,2.3165839E0,8.5381454E-1,1.6872348E0,6.5152884E-1,2.3381908E0,-2.688993E-1,6.5026826E-1,7.5459415E-1,1.5768996E0,-9.283139E-2,7.8278536E-1,2.5464064E-1,1.1747831E0,-4.323474E-1,4.144267E-1,8.153319E-1,-4.655567E-1,-5.133877E-1,-1.0797194E0,-3.1970912E-1,2.4459743E-1,-7.342763E-1,-2.63799E-1,-1.2362353E0,-5.762195E-1,5.8141064E-2,-1.0638179E0,-1.1499594E0,-1.5103205E0,-1.714961E0,1.7590848E-1,-1.6539828E-1,-1.4168446E0,-1.4523529E0,-1.8286484E0,-1.8340901E0,-2.2191417E0],"split_indices":[24,24,24,24,24,24,24,24,130,131,103,24,24,24,24,130,114,138,131,118,116,103,135,142,102,95,143,122,122,24,0,135,135,95,99,170,122,0,138,122,142,122,142,122,114,114,94,102,118,98,103,170,170,11,143,0,166,0,123,0,0,0,0,0,0,0,0,0,0,0,0,0,0,0,0,0,0,0,0,0,0,0,0,0,0,0,0,0,0,0,0,0,0,0,0,0,0,0,0,0,0,0,0,0,0,0,0,0,0,0,0],"split_type":[0,0,0,0,0,0,0,0,0,0,0,0,0,0,0,0,0,0,0,0,0,0,0,0,0,0,0,0,0,0,0,0,0,0,0,0,0,0,0,0,0,0,0,0,0,0,0,0,0,0,0,0,0,0,0,0,0,0,0,0,0,0,0,0,0,0,0,0,0,0,0,0,0,0,0,0,0,0,0,0,0,0,0,0,0,0,0,0,0,0,0,0,0,0,0,0,0,0,0,0,0,0,0,0,0,0,0,0,0,0,0],"sum_hessian":[1.2614E4,6.34E3,6.274E3,2.93E3,3.41E3,3.24E3,3.034E3,1.06E3,1.87E3,1.843E3,1.567E3,1.656E3,1.584E3,1.558E3,1.476E3,9.7E1,9.63E2,1.161E3,7.09E2,1.255E3,5.88E2,1.145E3,4.22E2,7.35E2,9.21E2,8.92E2,6.92E2,9.31E2,6.27E2,7.79E2,6.97E2,4.8E1,4.9E1,1.9E2,7.73E2,8.25E2,3.36E2,5E0,7.04E2,7.59E2,4.96E2,3.81E2,2.07E2,4.84E2,6.61E2,2.05E2,2.17E2,1.33E2,6.02E2,6.88E2,2.33E2,7.07E2,1.85E2,2.09E2,4.83E2,2.4E2,6.91E2,2.05E2,4.22E2,3.98E2,3.81E2,3.8E1,1E1,2E1,2.9E1,1.69E2,2.1E1,5.74E2,1.99E2,8E0,8.17E2,9.6E1,2.4E2,5.37E2,1.67E2,5.28E2,2.31E2,1.47E2,3.49E2,4.9E1,3.32E2,1.15E2,9.2E1,3.52E2,1.32E2,2.94E2,3.67E2,5.5E1,1.5E2,1.3E1,2.04E2,9.2E1,4.1E1,3.78E2,2.24E2,3.72E2,3.16E2,1.56E2,7.7E1,3.1E1,6.76E2,4.7E1,1.38E2,2.08E2,1E0,1.7E1,4.66E2,9E1,6.01E2,5.3E1,3.69E2],"tree_param":{"num_deleted":"0","num_feature":"193","num_nodes":"111","size_leaf_vector":"1"}},{"base_weights":[2.1296372E-1,3.375157E1,-2.7799784E1,5.3029778E1,2.2172087E1,-1.1191321E1,-4.298393E1,8.47974E1,5.0641E1,3.1068525E1,1.396458E1,-3.2794046E0,-1.8210709E1,-3.406412E1,-5.0572777E1,1.0435603E2,7.4570244E1,4.0173782E1,5.591105E1,2.0291725E1,3.6738636E1,1.6933668E1,5.2023215E0,-7.405307E-1,-9.767234E0,-1.3872448E1,-2.1917122E1,-3.06367E1,-3.807655E1,-4.593617E1,-5.482916E1,7.834052E1,1.18221176E2,8.871119E1,6.3193058E1,3.808664E1,7.437832E1,7.023843E1,4.9332237E1,5.827349E1,1.8673923E1,3.0510073E1,4.825364E1,1.5738197E1,4.4887463E1,1.0095201E1,-8.0711883E-1,-3.234397E0,6.164178E0,-6.6261315E0,-1.5217551E1,-2.2460363E1,-1.2255261E1,-2.7139973E1,-1.9939005E1,-3.7182167E1,-2.9690119E1,-4.0808506E1,-3.645007E1,-4.4030727E1,-2.399852E0,-2.6325033E0,-2.8897295E0,4.1528964E0,1.9353224E0,6.5933213E0,4.133212E0,3.1493971E0,5.3225465E0,2.3533533E0,3.4491775E0,1.840359E0,3.8018746E0,2.2470453E0,4.48388E0,1.6437794E0,4.1393313E0,2.3914437E0,6.3231215E0,3.1821563E0,-2.641627E-2,8.626525E-1,2.683492E0,4.109974E0,1.4403523E0,1.0584902E0,3.1169572E0,-1.6991639E-1,8.588266E-1,2.5142336E0,-4.2378347E-2,1.9299538E0,4.2893425E-1,9.199986E-1,-1.658455E-1,-3.0350265E-1,2.1125053E-1,-3.8788685E-1,8.524025E-1,-2.4716032E-1,-1.1075176E0,-4.302683E-1,-9.969706E-1,-1.0301889E0,-1.8578142E0,-2.5062963E-1,-7.2307044E-1,-6.3561064E-1,-1.4088868E0,1.0369833E-1,-1.0615548E0,-1.9497021E0,-1.5084051E0,-1.1841718E-1,-1.5089049E0,-2.045592E0,-3.0978775E-1,-1.0941049E0,-1.8612112E0,-1.7595133E0,-2.2230482E0],"categories":[],"categories_nodes":[],"categories_segments":[],"categories_sizes":[],"default_left":[0,0,0,0,0,0,0,0,0,0,0,0,0,0,0,0,0,0,0,0,0,0,0,0,0,0,0,0,0,0,0,0,0,0,0,0,0,0,0,0,0,0,0,0,0,0,0,0,0,0,0,0,0,0,0,0,0,0,0,0,0,0,0,0,0,0,0,0,0,0,0,0,0,0,0,0,0,0,0,0,0,0,0,0,0,0,0,0,0,0,0,0,0,0,0,0,0,0,0,0,0,0,0,0,0,0,0,0,0,0,0,0,0,0,0,0,0,0,0,0,0],"id":11,"left_children":[1,3,5,7,9,11,13,15,17,19,21,23,25,27,29,31,33,35,37,39,41,43,45,47,49,51,53,55,57,59,61,63,65,67,69,71,73,75,77,79,81,83,85,87,89,91,93,95,97,99,101,103,105,107,109,111,113,115,117,119,-1,-1,-1,-1,-1,-1,-1,-1,-1,-1,-1,-1,-1,-1,-1,-1,-1,-1,-1,-1,-1,-1,-1,-1,-1,-1,-1,-1,-1,-1,-1,-1,-1,-1,-1,-1,-1,-1,-1,-1,-1,-1,-1,-1,-1,-1,-1,-1,-1,-1,-1,-1,-1,-1,-1,-1,-1,-1,-1,-1,-1],"loss_changes":[1.1919544E7,1.2877635E6,1.742876E6,1.60075E5,2.6308662E5,1.8337834E5,2.427095E5,2.22225E4,1.09017E5,1.050285E5,4.8795844E4,2.5589914E4,2.7834938E4,2.17035E4,3.5946E4,8.41325E3,1.080425E4,4.5640875E4,1.2274525E5,3.571853E4,7.9788625E4,4.6178938E4,1.4033603E4,1.9271248E4,7.3806094E3,1.0960344E4,9.191031E3,4.4846875E3,1.898375E3,1.574E3,3.48975E3,5.245156E2,3.6548438E3,1.29168125E4,2.3558125E3,2.8374562E4,1.30839375E4,1.9372088E5,1.0074575E5,7.6114844E3,2.7715484E4,6.2597062E4,1.4975019E5,3.7134156E4,1.4112586E4,1.1037461E4,1.0425275E4,1.741285E4,4.513498E4,7.1796875E3,4.7926797E3,2.699539E3,1.0840742E4,3.4747812E3,1.9584219E4,2.215625E2,1.05011875E4,7.336875E2,4.6778125E3,3.37125E2,0E0,0E0,0E0,0E0,0E0,0E0,0E0,0E0,0E0,0E0,0E0,0E0,0E0,0E0,0E0,0E0,0E0,0E0,0E0,0E0,0E0,0E0,0E0,0E0,0E0,0E0,0E0,0E0,0E0,0E0,0E0,0E0,0E0,0E0,0E0,0E0,0E0,0E0,0E0,0E0,0E0,0E0,0E0,0E0,0E0,0E0,0E0,0E0,0E0,0E0,0E0,0E0,0E0,0E0,0E0,0E0,0E0,0E0,0E0,0E0,0E0],"parents":[2147483647,0,0,1,1,2,2,3,3,4,4,5,5,6,6,7,7,8,8,9,9,10,10,11,11,12,12,13,13,14,14,15,15,16,16,17,17,18,18,19,19,20,20,21,21,22,22,23,23,24,24,25,25,26,26,27,27,28,28,29,29,30,30,31,31,32,32,33,33,34,34,35,35,36,36,37,37,38,38,39,39,40,40,41,41,42,42,43,43,44,44,45,45,46,46,47,47,48,48,49,49,50,50,51,51,52,52,53,53,54,54,55,55,56,56,57,57,58,58,59,59],"right_children":[2,4,6,8,10,12,14,16,18,20,22,24,26,28,30,32,34,36,38,40,42,44,46,48,50,52,54,56,58,60,62,64,66,68,70,72,74,76,78,80,82,84,86,88,90,92,94,96,98,100,102,104,106,108,110,112,114,116,118,120,-1,-1,-1,-1,-1,-1,-1,-1,-1,-1,-1,-1,-1,-1,-1,-1,-1,-1,-1,-1,-1,-1,-1,-1,-1,-1,-1,-1,-1,-1,-1,-1,-1,-1,-1,-1,-1,-1,-1,-1,-1,-1,-1,-1,-1,-1,-1,-1,-1,-1,-1,-1,-1,-1,-1,-1,-1,-1,-1,-1,-1],"split_conditions":[-1.5607743E-1,-1.137862E0,7.5732785E-1,-1.6940719E0,-6.66932E-1,2.745279E-1,1.2028906E0,-1.7296532E0,4.5507213E-1,3.549474E-1,-7.058646E-2,3.4608398E-2,4.9024704E-1,9.9872786E-1,1.4586213E0,-9.039604E-1,-4.4092968E-1,8.420994E-1,9.1635543E-1,-7.340092E-1,-5.9786916E-1,-1.3306576E-1,-2.3355411E-1,-1.2645318E-1,1.3874044E-1,-6.047578E-1,-4.212621E-1,-2.2067687E-1,-1.8131018E-1,1.337715E0,1.6205673E0,-6.025128E-2,-7.4948853E-1,8.980783E-1,-7.6443493E-1,1.0805042E0,-4.8053417E-1,-7.2437876E-1,-4.4559422E-1,1.5058493E-2,8.565684E-1,-5.93371E-1,-6.412295E-1,-8.0337054E-1,5.7257986E-1,-7.0975757E-1,-4.910198E-1,3.4998417E-1,-4.0603045E-1,8.7485176E-1,-5.087808E-1,6.1193043E-1,-3.6906642E-1,-1.0682782E0,-3.3640283E-1,2.9678005E-1,-2.1121997E-1,2.9308105E0,-3.19862E-1,-1.9650304E0,-2.399852E0,-2.6325033E0,-2.8897295E0,4.1528964E0,1.9353224E0,6.5933213E0,4.133212E0,3.1493971E0,5.3225465E0,2.3533533E0,3.4491775E0,1.840359E0,3.8018746E0,2.2470453E0,4.48388E0,1.6437794E0,4.1393313E0,2.3914437E0,6.3231215E0,3.1821563E0,-2.641627E-2,8.626525E-1,2.683492E0,4.109974E0,1.4403523E0,1.0584902E0,3.1169572E0,-1.6991639E-1,8.588266E-1,2.5142336E0,-4.2378347E-2,1.9299538E0,4.2893425E-1,9.199986E-1,-1.658455E-1,-3.0350265E-1,2.1125053E-1,-3.8788685E-1,8.524025E-1,-2.4716032E-1,-1.1075176E0,-4.302683E-1,-9.969706E-1,-1.0301889E0,-1.8578142E0,-2.5062963E-1,-7.2307044E-1,-6.3561064E-1,-1.4088868E0,1.0369833E-1,-1.0615548E0,-1.9497021E0,-1.5084051E0,-1.1841718E-1,-1.5089049E0,-2.045592E0,-3.0978775E-1,-1.0941049E0,-1.8612112E0,-1.7595133E0,-2.2230482E0],"split_indices":[24,24,24,24,24,24,24,24,135,170,102,144,24,24,24,130,137,95,134,114,118,102,135,118,24,140,142,146,122,24,24,113,92,43,141,166,98,122,131,99,134,142,122,122,134,98,92,140,143,99,115,167,134,170,142,171,146,145,143,170,0,0,0,0,0,0,0,0,0,0,0,0,0,0,0,0,0,0,0,0,0,0,0,0,0,0,0,0,0,0,0,0,0,0,0,0,0,0,0,0,0,0,0,0,0,0,0,0,0,0,0,0,0,0,0,0,0,0,0,0,0],"split_type":[0,0,0,0,0,0,0,0,0,0,0,0,0,0,0,0,0,0,0,0,0,0,0,0,0,0,0,0,0,0,0,0,0,0,0,0,0,0,0,0,0,0,0,0,0,0,0,0,0,0,0,0,0,0,0,0,0,0,0,0,0,0,0,0,0,0,0,0,0,0,0,0,0,0,0,0,0,0,0,0,0,0,0,0,0,0,0,0,0,0,0,0,0,0,0,0,0,0,0,0,0,0,0,0,0,0,0,0,0,0,0,0,0,0,0,0,0,0,0,0,0],"sum_hessian":[1.2685E4,5.773E3,6.912E3,2.165E3,3.608E3,3.302E3,3.61E3,1.49E2,2.016E3,1.73E3,1.878E3,1.553E3,1.749E3,1.662E3,1.948E3,4.8E1,1.01E2,6.78E2,1.338E3,5.98E2,1.132E3,1.402E3,4.76E2,1.117E3,4.36E2,8.08E2,9.41E2,9.01E2,7.61E2,9.38E2,1.01E3,1.9E1,2.9E1,4.2E1,5.9E1,6.41E2,3.7E1,4.18E2,9.2E2,2.3E1,5.75E2,7.37E2,3.95E2,1.346E3,5.6E1,2.62E2,2.14E2,8.21E2,2.96E2,2.78E2,1.58E2,1.26E2,6.82E2,2.55E2,6.86E2,1.09E2,7.92E2,2.75E2,4.86E2,4.99E2,4.39E2,5.93E2,4.17E2,1.6E1,3E0,1.9E1,1E1,1.9E1,2.3E1,1.8E1,4.1E1,6.22E2,1.9E1,1.4E1,2.3E1,1.06E2,3.12E2,9.04E2,1.6E1,2.1E1,2E0,5.54E2,2.1E1,2.2E1,7.15E2,1.36E2,2.59E2,9.4E1,1.252E3,5E1,6E0,1.2E1,2.5E2,2.4E1,1.9E2,5.95E2,2.26E2,1.3E2,1.66E2,2.52E2,2.6E1,6.7E1,9.1E1,1.14E2,1.2E1,1.6E2,5.22E2,1.8E1,2.37E2,3.8E1,6.48E2,8.3E1,2.6E1,1.4E1,7.78E2,2.74E2,1E0,2.6E1,4.6E2,2.7E1,4.72E2],"tree_param":{"num_deleted":"0","num_feature":"193","num_nodes":"121","size_leaf_vector":"1"}},{"base_weights":[5.6947708E-2,3.1414694E1,-2.6306456E1,4.6202484E1,1.759923E1,-1.177858E1,-4.1659714E1,5.7510883E1,3.8934135E1,2.5573605E1,1.0902886E1,-3.8405077E0,-1.9212406E1,-3.370502E1,-4.838616E1,9.861805E1,5.5306335E1,4.524665E1,2.860381E1,1.872809E1,3.252352E1,5.570223E0,1.496009E1,-1.3619609E1,-2.0140362E0,-1.5387573E1,-2.3588705E1,-3.091797E1,-3.74667E1,-4.3974277E1,-5.2066647E1,7.577463E1,1.1195495E2,3.9431095E1,5.977897E1,4.0925392E1,6.959238E1,2.6305967E1,9.258323E1,4.0242622E1,1.6829153E1,6.2826324E1,2.4873425E1,4.1466002E0,4.896276E0,9.42101E0,3.511057E1,-1.0915514E1,-2.4383099E1,1.0553173E0,-7.0395746E0,-2.289695E1,-1.3595528E1,-2.8785206E1,-2.1590044E1,-2.7319832E1,-3.2293705E1,-2.0472543E0,-3.6237305E1,-2.3472877E0,-4.2937126E1,-2.5210721E0,-2.7814307E0,2.7953181E0,4.337871E0,6.175073E0,3.9342103E0,1.0769747E0,2.5183582E0,3.1514485E0,1.9125471E0,1.8520758E0,2.6444786E0,4.5786223E0,1.76716E0,1.1086823E0,2.1328933E0,1.43853E-1,5.0704994E0,4.6064448E-1,3.2896821E0,4.0012E-1,1.0326973E0,-5.541591E-1,3.3784654E0,1.3123792E0,-9.4326365E-1,2.8801802E-1,-6.926708E-1,3.370812E0,4.2977786E-1,7.059332E-2,2.1168911E0,-6.26076E-1,4.971079E-1,-1.09266285E-2,-1.4660443E0,-4.0499583E-1,1.3058819E-1,-1.5757571E-1,-6.1161894E-1,-1.0664577E0,-1.7099832E0,-3.4442636E-1,-8.0905914E-1,-1.568153E0,-1.2064145E0,-4.8864242E-1,-1.1366605E0,-1.5567725E0,-1.2226998E0,-1.707228E0,-1.4884623E0,-1.8555586E0,-1.5989969E0,-1.6074604E0,-2.158407E0],"categories":[],"categories_nodes":[],"categories_segments":[],"categories_sizes":[],"default_left":[0,0,0,0,0,0,0,0,0,0,0,0,0,0,0,0,0,0,0,0,0,0,0,0,0,0,0,0,0,0,0,0,0,0,0,0,0,0,0,0,0,0,0,0,0,0,0,0,0,0,0,0,0,0,0,0,0,0,0,0,0,0,0,0,0,0,0,0,0,0,0,0,0,0,0,0,0,0,0,0,0,0,0,0,0,0,0,0,0,0,0,0,0,0,0,0,0,0,0,0,0,0,0,0,0,0,0,0,0,0,0,0,0,0,0,0,0],"id":12,"left_children":[1,3,5,7,9,11,13,15,17,19,21,23,25,27,29,31,33,35,37,39,41,43,45,47,49,51,53,55,57,59,61,63,65,67,69,71,73,75,77,79,81,83,85,-1,87,89,91,93,95,97,99,101,103,105,107,109,111,-1,113,-1,115,-1,-1,-1,-1,-1,-1,-1,-1,-1,-1,-1,-1,-1,-1,-1,-1,-1,-1,-1,-1,-1,-1,-1,-1,-1,-1,-1,-1,-1,-1,-1,-1,-1,-1,-1,-1,-1,-1,-1,-1,-1,-1,-1,-1,-1,-1,-1,-1,-1,-1,-1,-1,-1,-1,-1,-1],"loss_changes":[1.0423821E7,1.1757515E6,1.5274025E6,2.26341E5,1.5879731E5,2.0770131E5,1.76547E5,9.296225E4,1.093025E5,6.4046312E4,3.4988125E4,3.0408139E4,3.0067812E4,1.487175E4,2.6971E4,7.9683125E3,7.099E4,1.077215E5,9.253594E4,2.7389984E4,1.5445169E5,3.619462E4,1.02355125E5,7.534121E3,2.2173373E4,1.27825E4,8.1650938E3,3.493625E3,1.2786875E3,5.29875E2,2.9205E3,1.6853125E2,2.5755625E3,4.391778E4,5.38415E4,3.9629125E4,1.1495294E5,4.128622E4,1.7128156E4,4.300011E4,2.120511E4,4.8073375E4,3.2891188E4,0E0,1.1372117E4,3.4032215E4,4.816292E4,7.359961E3,6.3175215E3,1.2746076E4,1.0964971E4,2.5665469E3,1.3554016E4,2.0283906E3,8.085875E3,1.9832812E3,1.9458125E3,0E0,6.2125E2,0E0,1.67375E2,0E0,0E0,0E0,0E0,0E0,0E0,0E0,0E0,0E0,0E0,0E0,0E0,0E0,0E0,0E0,0E0,0E0,0E0,0E0,0E0,0E0,0E0,0E0,0E0,0E0,0E0,0E0,0E0,0E0,0E0,0E0,0E0,0E0,0E0,0E0,0E0,0E0,0E0,0E0,0E0,0E0,0E0,0E0,0E0,0E0,0E0,0E0,0E0,0E0,0E0,0E0,0E0,0E0,0E0,0E0,0E0],"parents":[2147483647,0,0,1,1,2,2,3,3,4,4,5,5,6,6,7,7,8,8,9,9,10,10,11,11,12,12,13,13,14,14,15,15,16,16,17,17,18,18,19,19,20,20,21,21,22,22,23,23,24,24,25,25,26,26,27,27,28,28,29,29,30,30,31,31,32,32,33,33,34,34,35,35,36,36,37,37,38,38,39,39,40,40,41,41,42,42,44,44,45,45,46,46,47,47,48,48,49,49,50,50,51,51,52,52,53,53,54,54,55,55,56,56,58,58,60,60],"right_children":[2,4,6,8,10,12,14,16,18,20,22,24,26,28,30,32,34,36,38,40,42,44,46,48,50,52,54,56,58,60,62,64,66,68,70,72,74,76,78,80,82,84,86,-1,88,90,92,94,96,98,100,102,104,106,108,110,112,-1,114,-1,116,-1,-1,-1,-1,-1,-1,-1,-1,-1,-1,-1,-1,-1,-1,-1,-1,-1,-1,-1,-1,-1,-1,-1,-1,-1,-1,-1,-1,-1,-1,-1,-1,-1,-1,-1,-1,-1,-1,-1,-1,-1,-1,-1,-1,-1,-1,-1,-1,-1,-1,-1,-1,-1,-1,-1,-1],"split_conditions":[-1.5607743E-1,-9.7773445E-1,8.126206E-1,-1.4338411E0,-5.9822583E-1,3.1476125E-1,1.2316364E0,-1.7296532E0,-4.6101934E-1,6.4731365E-1,3.7092653E-1,-6.6568065E-1,5.8392787E-1,1.0544355E0,1.4586213E0,-9.039604E-1,2.0582119E-1,-6.3024604E-1,1.087446E0,-5.9604657E-1,6.081002E-1,-1.307153E0,-4.1893345E-1,6.528394E-1,1.3874044E-1,-4.5860225E-1,-4.212621E-1,-3.5255828E-1,-3.6274916E-1,-6.4595985E-1,1.6474903E0,5.7524458E-2,-6.860905E-1,-1.8284923E-1,-2.771507E-1,-5.896942E-1,-9.37771E-2,6.7347944E-1,-1.3776591E0,-5.541811E-1,-3.5110578E-1,-1.3796787E0,7.847616E-2,4.1466002E0,3.328253E-1,1.6901717E-1,-6.731213E-1,-5.6281376E-1,-1.1935444E0,-1.1289093E0,-3.0265245E-1,6.1193043E-1,-3.3917287E-1,5.761443E-1,-3.1548682E-1,-6.144216E-1,2.2183673E-1,-2.0472543E0,1.7512214E0,-2.3472877E0,-6.612635E-1,-2.5210721E0,-2.7814307E0,2.7953181E0,4.337871E0,6.175073E0,3.9342103E0,1.0769747E0,2.5183582E0,3.1514485E0,1.9125471E0,1.8520758E0,2.6444786E0,4.5786223E0,1.76716E0,1.1086823E0,2.1328933E0,1.43853E-1,5.0704994E0,4.6064448E-1,3.2896821E0,4.0012E-1,1.0326973E0,-5.541591E-1,3.3784654E0,1.3123792E0,-9.4326365E-1,2.8801802E-1,-6.926708E-1,3.370812E0,4.2977786E-1,7.059332E-2,2.1168911E0,-6.26076E-1,4.971079E-1,-1.09266285E-2,-1.4660443E0,-4.0499583E-1,1.3058819E-1,-1.5757571E-1,-6.1161894E-1,-1.0664577E0,-1.7099832E0,-3.4442636E-1,-8.0905914E-1,-1.568153E0,-1.2064145E0,-4.8864242E-1,-1.1366605E0,-1.5567725E0,-1.2226998E0,-1.707228E0,-1.4884623E0,-1.8555586E0,-1.5989969E0,-1.6074604E0,-2.158407E0],"split_indices":[24,24,24,24,24,24,24,24,94,134,114,142,24,24,24,130,114,94,171,154,135,94,138,99,24,120,142,182,123,142,24,66,92,146,102,95,142,138,97,147,102,94,95,0,114,134,120,123,143,102,102,167,134,99,142,166,123,0,154,0,143,0,0,0,0,0,0,0,0,0,0,0,0,0,0,0,0,0,0,0,0,0,0,0,0,0,0,0,0,0,0,0,0,0,0,0,0,0,0,0,0,0,0,0,0,0,0,0,0,0,0,0,0,0,0,0,0],"split_type":[0,0,0,0,0,0,0,0,0,0,0,0,0,0,0,0,0,0,0,0,0,0,0,0,0,0,0,0,0,0,0,0,0,0,0,0,0,0,0,0,0,0,0,0,0,0,0,0,0,0,0,0,0,0,0,0,0,0,0,0,0,0,0,0,0,0,0,0,0,0,0,0,0,0,0,0,0,0,0,0,0,0,0,0,0,0,0,0,0,0,0,0,0,0,0,0,0,0,0,0,0,0,0,0,0,0,0,0,0,0,0,0,0,0,0,0,0],"sum_hessian":[1.2607E4,5.758E3,6.849E3,2.78E3,2.978E3,3.52E3,3.329E3,1.085E3,1.695E3,1.358E3,1.62E3,1.703E3,1.817E3,1.528E3,1.801E3,5.3E1,1.032E3,1.05E3,6.45E2,6.86E2,6.72E2,7.01E2,9.19E2,2.67E2,1.436E3,9.72E2,8.45E2,8.83E2,6.45E2,8.25E2,9.76E2,2.2E1,3.1E1,2.29E2,8.03E2,8.94E2,1.56E2,6.24E2,2.1E1,5.4E1,6.32E2,1.34E2,5.38E2,5E0,6.96E2,7.22E2,1.97E2,2.15E2,5.2E1,8.92E2,5.44E2,1.85E2,7.87E2,2.31E2,6.14E2,2.5E2,6.33E2,1.6E2,4.85E2,2.02E2,6.23E2,6.78E2,2.98E2,1E1,1.2E1,2.1E1,1E1,8.8E1,1.41E2,6.96E2,1.07E2,6.78E2,2.16E2,9.4E1,6.2E1,5E2,1.24E2,2E0,1.9E1,2.5E1,2.9E1,1.92E2,4.4E2,8E0,1.26E2,5.22E2,1.6E1,6.66E2,3E1,9E0,7.13E2,3.5E1,1.62E2,2E2,1.5E1,9E0,4.3E1,1.29E2,7.63E2,3.12E2,2.32E2,1.65E2,2E1,2.2E2,5.67E2,1.45E2,8.6E1,5.5E1,5.59E2,1.03E2,1.47E2,3.58E2,2.75E2,3.96E2,8.9E1,1.6E1,6.07E2],"tree_param":{"num_deleted":"0","num_feature":"193","num_nodes":"117","size_leaf_vector":"1"}},{"base_weights":[-6.7977645E-2,3.0892511E1,-2.4277056E1,4.6770317E1,1.9937279E1,-1.0015197E1,-3.949505E1,6.890763E1,4.404266E1,2.8406229E1,1.4056334E1,-2.30549E0,-1.7173008E1,-3.2242413E1,-4.6350414E1,9.3858955E1,6.2637478E1,3.335513E1,4.916024E1,1.749607E1,3.442799E1,1.8491953E1,9.037152E0,-1.1547069E1,-5.236303E-1,-1.2194089E1,-2.0311003E1,-2.8503016E1,-3.551962E1,-4.244739E1,-4.9924133E1,3.5192459E0,1.04461334E2,6.885163E1,4.6409084E1,3.1693785E1,6.99001E1,4.31211E1,6.0026485E1,6.900893E1,1.6043295E1,2.8692745E1,5.045655E1,1.2519484E1,3.394812E1,1.0749959E1,-4.0934505E0,-8.956981E0,-2.340773E1,2.86015E0,-4.160116E0,-9.787138E0,-1.8390928E1,-1.8671938E1,-2.6064299E1,-3.2582546E1,-2.7072176E1,-3.842307E1,-3.3747517E1,-4.0748577E1,-2.2079272E0,-2.4118087E0,-2.644078E0,6.00719E0,3.9861894E0,2.7732236E0,4.110571E0,3.0388138E0,1.9573368E0,1.3915926E0,2.2909842E0,2.1033084E0,4.1513195E0,-1.723827E-1,2.2320652E0,1.5039296E0,3.5393674E0,4.3517566E0,3.3455965E-1,2.0057292E-1,1.0755033E0,4.4828162E-1,1.5692983E0,1.2181165E0,3.2845101E0,3.9597544E-1,1.2244998E0,3.5749456E-1,2.3517056E0,4.4473645E-1,1.8365126E0,1.1758043E-1,-9.636273E-1,1.0936539E0,-5.132079E-1,-7.816248E-2,-1.5044513E0,-1.3774024E-1,3.9850911E-1,1.8264292E-1,-3.4025204E-1,-6.460228E-1,1.3317257E-1,-1.0765564E0,-5.435783E-1,-1.2622947E0,-8.4947884E-1,-1.4906343E0,-1.1974295E0,-1.7033871E0,-1.4394249E0,-9.018073E-1,-1.40848E0,-1.929703E0,-3.4032136E-1,-1.122251E0,-1.7425795E0,-1.5634711E0,-2.0584826E0],"categories":[],"categories_nodes":[],"categories_segments":[],"categories_sizes":[],"default_left":[0,0,0,0,0,0,0,0,0,0,0,0,0,0,0,0,0,0,0,0,0,0,0,0,0,0,0,0,0,0,0,0,0,0,0,0,0,0,0,0,0,0,0,0,0,0,0,0,0,0,0,0,0,0,0,0,0,0,0,0,0,0,0,0,0,0,0,0,0,0,0,0,0,0,0,0,0,0,0,0,0,0,0,0,0,0,0,0,0,0,0,0,0,0,0,0,0,0,0,0,0,0,0,0,0,0,0,0,0,0,0,0,0,0,0,0,0,0,0],"id":13,"left_children":[1,3,5,7,9,11,13,15,17,19,21,23,25,27,29,31,33,35,37,39,41,43,45,47,49,51,53,55,57,59,61,-1,63,65,67,69,71,73,75,77,79,81,83,85,87,89,91,93,95,97,99,101,103,105,107,109,111,113,115,117,-1,-1,-1,-1,-1,-1,-1,-1,-1,-1,-1,-1,-1,-1,-1,-1,-1,-1,-1,-1,-1,-1,-1,-1,-1,-1,-1,-1,-1,-1,-1,-1,-1,-1,-1,-1,-1,-1,-1,-1,-1,-1,-1,-1,-1,-1,-1,-1,-1,-1,-1,-1,-1,-1,-1,-1,-1,-1,-1],"loss_changes":[9.566937E6,9.733335E5,1.5542395E6,1.350005E5,1.6475562E5,2.0408831E5,1.70783E5,3.3076625E4,1.098275E5,8.8616E4,4.3446438E4,2.93385E4,2.9718812E4,1.966125E4,2.269475E4,4.5937812E3,1.7175562E4,3.8037875E4,8.77085E4,3.518864E4,7.8897125E4,9.5486625E4,2.0757469E4,8.637734E3,1.8407979E4,1.0917133E4,1.0593594E4,3.7468125E3,3.30825E3,6.91875E2,2.05675E3,0E0,2.448E3,2.11945E4,3.776836E3,3.3420625E4,6.737375E3,6.3018875E4,1.554585E5,1.4021203E4,3.102543E4,3.4040312E4,8.94295E4,4.115915E4,1.01010625E5,3.8955836E4,1.0513149E4,9.815994E3,7.3963867E3,2.2258723E4,1.4924125E4,2.1022688E4,4.653664E3,9.723969E3,1.3321094E3,1.51875E2,5.3723125E3,1.532125E3,6.2558125E3,4.808125E2,0E0,0E0,0E0,0E0,0E0,0E0,0E0,0E0,0E0,0E0,0E0,0E0,0E0,0E0,0E0,0E0,0E0,0E0,0E0,0E0,0E0,0E0,0E0,0E0,0E0,0E0,0E0,0E0,0E0,0E0,0E0,0E0,0E0,0E0,0E0,0E0,0E0,0E0,0E0,0E0,0E0,0E0,0E0,0E0,0E0,0E0,0E0,0E0,0E0,0E0,0E0,0E0,0E0,0E0,0E0,0E0,0E0,0E0,0E0],"parents":[2147483647,0,0,1,1,2,2,3,3,4,4,5,5,6,6,7,7,8,8,9,9,10,10,11,11,12,12,13,13,14,14,15,15,16,16,17,17,18,18,19,19,20,20,21,21,22,22,23,23,24,24,25,25,26,26,27,27,28,28,29,29,30,30,32,32,33,33,34,34,35,35,36,36,37,37,38,38,39,39,40,40,41,41,42,42,43,43,44,44,45,45,46,46,47,47,48,48,49,49,50,50,51,51,52,52,53,53,54,54,55,55,56,56,57,57,58,58,59,59],"right_children":[2,4,6,8,10,12,14,16,18,20,22,24,26,28,30,32,34,36,38,40,42,44,46,48,50,52,54,56,58,60,62,-1,64,66,68,70,72,74,76,78,80,82,84,86,88,90,92,94,96,98,100,102,104,106,108,110,112,114,116,118,-1,-1,-1,-1,-1,-1,-1,-1,-1,-1,-1,-1,-1,-1,-1,-1,-1,-1,-1,-1,-1,-1,-1,-1,-1,-1,-1,-1,-1,-1,-1,-1,-1,-1,-1,-1,-1,-1,-1,-1,-1,-1,-1,-1,-1,-1,-1,-1,-1,-1,-1,-1,-1,-1,-1,-1,-1,-1,-1],"split_conditions":[-2.0827202E-1,-1.1122831E0,7.980837E-1,-1.6631962E0,-7.476501E-1,2.745279E-1,1.255702E0,-1.7296532E0,4.5507213E-1,3.549474E-1,-4.8647535E-1,-6.6568065E-1,4.7382325E-1,1.0144713E0,1.4858385E0,-9.884128E-1,6.129247E-1,8.420994E-1,-7.749465E-1,-1.242926E0,-4.407305E-1,-5.749924E-1,5.315772E-1,6.972419E-1,4.5668207E-2,3.5784304E-1,5.796039E-1,-3.6631727E-1,-1.8131018E-1,1.3780707E0,1.6474903E0,3.5192459E0,-1.263192E-1,-7.6420194E-1,-8.689783E-1,6.7347944E-1,-4.8053417E-1,3.8362694E-1,-7.2437876E-1,-3.4865606E-1,-2.6184964E-1,-1.5407012E0,-4.1367868E-1,1.6220018E-1,4.9379912E-1,5.741331E-1,-1.9908637E-2,-8.099899E-1,-1.1564592E0,-5.422118E-1,-2.6532504E-1,2.932452E-1,6.2709296E-1,-4.212621E-1,5.317297E-1,1.1321628E0,-2.3899497E-1,2.7082996E0,-2.1351491E-1,-1.9182106E0,-2.2079272E0,-2.4118087E0,-2.644078E0,6.00719E0,3.9861894E0,2.7732236E0,4.110571E0,3.0388138E0,1.9573368E0,1.3915926E0,2.2909842E0,2.1033084E0,4.1513195E0,-1.723827E-1,2.2320652E0,1.5039296E0,3.5393674E0,4.3517566E0,3.3455965E-1,2.0057292E-1,1.0755033E0,4.4828162E-1,1.5692983E0,1.2181165E0,3.2845101E0,3.9597544E-1,1.2244998E0,3.5749456E-1,2.3517056E0,4.4473645E-1,1.8365126E0,1.1758043E-1,-9.636273E-1,1.0936539E0,-5.132079E-1,-7.816248E-2,-1.5044513E0,-1.3774024E-1,3.9850911E-1,1.8264292E-1,-3.4025204E-1,-6.460228E-1,1.3317257E-1,-1.0765564E0,-5.435783E-1,-1.2622947E0,-8.4947884E-1,-1.4906343E0,-1.1974295E0,-1.7033871E0,-1.4394249E0,-9.018073E-1,-1.40848E0,-1.929703E0,-3.4032136E-1,-1.122251E0,-1.7425795E0,-1.5634711E0,-2.0584826E0],"split_indices":[24,24,24,24,24,24,24,24,135,170,131,142,24,24,24,130,101,95,139,147,118,138,171,99,24,102,95,122,122,24,24,0,93,147,173,138,98,114,122,11,102,118,140,122,166,114,143,166,143,146,143,95,103,142,130,147,122,129,143,166,0,0,0,0,0,0,0,0,0,0,0,0,0,0,0,0,0,0,0,0,0,0,0,0,0,0,0,0,0,0,0,0,0,0,0,0,0,0,0,0,0,0,0,0,0,0,0,0,0,0,0,0,0,0,0,0,0,0,0],"split_type":[0,0,0,0,0,0,0,0,0,0,0,0,0,0,0,0,0,0,0,0,0,0,0,0,0,0,0,0,0,0,0,0,0,0,0,0,0,0,0,0,0,0,0,0,0,0,0,0,0,0,0,0,0,0,0,0,0,0,0,0,0,0,0,0,0,0,0,0,0,0,0,0,0,0,0,0,0,0,0,0,0,0,0,0,0,0,0,0,0,0,0,0,0,0,0,0,0,0,0,0,0,0,0,0,0,0,0,0,0,0,0,0,0,0,0,0,0,0,0],"sum_hessian":[1.2762E4,5.6E3,7.162E3,2.285E3,3.315E3,3.698E3,3.464E3,2.48E2,2.037E3,1.357E3,1.958E3,1.781E3,1.917E3,1.686E3,1.778E3,4.7E1,2.01E2,6.62E2,1.375E3,4.84E2,8.73E2,1.038E3,9.2E2,2.87E2,1.494E3,7.43E2,1.174E3,7.92E2,8.94E2,8.56E2,9.22E2,1.7E1,3E1,1.43E2,5.8E1,6.35E2,2.7E1,8.87E2,4.88E2,1.2E1,4.72E2,6.45E2,2.28E2,7.5E2,2.88E2,8.14E2,1.06E2,2.37E2,5E1,7.74E2,7.2E2,5.37E2,2.06E2,9.17E2,2.57E2,2E2,5.92E2,3.31E2,5.63E2,4.42E2,4.14E2,5.98E2,3.24E2,1.6E1,1.4E1,7.4E1,6.9E1,1.7E1,4.1E1,5.01E2,1.34E2,1E1,1.7E1,2.8E1,8.59E2,1.3E2,3.58E2,9E0,3E0,1.48E2,3.24E2,7.8E1,5.67E2,8.5E1,1.43E2,5.43E2,2.07E2,9.5E1,1.93E2,7.61E2,5.3E1,7.5E1,3.1E1,9E0,2.28E2,1.2E1,3.8E1,3.69E2,4.05E2,1.82E2,5.38E2,4.29E2,1.08E2,1.44E2,6.2E1,1.84E2,7.33E2,8.8E1,1.69E2,1.38E2,6.2E1,6.6E1,5.26E2,3.29E2,2E0,5.2E1,5.11E2,2.2E1,4.2E2],"tree_param":{"num_deleted":"0","num_feature":"193","num_nodes":"119","size_leaf_vector":"1"}},{"base_weights":[-6.2663466E-2,2.904605E1,-2.3012325E1,4.491957E1,1.9457628E1,-8.740838E0,-3.6189915E1,6.8671104E1,4.181569E1,2.719834E1,1.3416479E1,-2.7643633E0,-1.5913142E1,-2.8464722E1,-4.3043392E1,4.426544E1,7.8662445E1,4.7190594E1,3.32295E1,1.675105E1,3.305567E1,1.7853565E1,8.525053E0,-2.4621546E-1,-8.444196E0,-1.2574516E1,-1.9454748E1,-2.4859333E1,-3.1610514E1,-3.8926826E1,-4.6771667E1,3.684857E1,7.509211E1,6.097691E1,1.06725006E2,6.0444477E1,4.1284966E1,5.9968254E1,3.0193192E1,1.5641305E1,6.4923805E1,4.5771847E1,2.6407505E1,4.151578E1,1.5121701E1,-4.112305E0,1.0607369E1,-2.8313863E0,6.2921677E0,-8.834573E0,1.8600577E0,-1.4692049E1,-6.295946E0,-2.5890013E1,-1.8138441E1,-3.170464E1,-2.3913725E1,-3.5241386E1,-3.0088627E1,-2.0806038E0,-3.7771652E1,-2.2143106E0,-2.4435308E0,2.235341E0,1.2426456E0,4.1248555E0,1.1454875E0,5.932615E0,2.8164933E0,3.2206495E0,5.864206E0,4.5326624E0,2.266999E0,2.0099053E0,7.118244E0,4.9487076E0,2.153132E0,6.110208E0,1.4568998E0,2.6993078E-1,1.0359479E0,4.1141577E0,4.8171607E-1,3.2046812E0,1.6831656E0,1.1258632E0,2.5119512E0,2.4477963E0,3.723684E-1,1.431122E0,5.8560365E-1,1.4277176E0,-3.808462E-1,4.2626926E-1,1.874354E0,-1.9240002E-1,8.972508E-1,8.839466E-1,-5.5210497E-2,-2.8199458E-1,-6.858157E-1,1.0394061E0,-7.575674E-1,1.0168098E0,-5.6214607E-1,-1.1170903E0,-1.58113E0,-7.912216E-1,-1.2245065E0,-1.6470972E0,-1.1096476E0,-8.4488165E-1,-1.2745368E0,-1.7833815E0,-1.1641263E0,-8.4201235E-1,-1.5405844E0,-1.813887E0,-1.9969391E0],"categories":[],"categories_nodes":[],"categories_segments":[],"categories_sizes":[],"default_left":[0,0,0,0,0,0,0,0,0,0,0,0,0,0,0,0,0,0,0,0,0,0,0,0,0,0,0,0,0,0,0,0,0,0,0,0,0,0,0,0,0,0,0,0,0,0,0,0,0,0,0,0,0,0,0,0,0,0,0,0,0,0,0,0,0,0,0,0,0,0,0,0,0,0,0,0,0,0,0,0,0,0,0,0,0,0,0,0,0,0,0,0,0,0,0,0,0,0,0,0,0,0,0,0,0,0,0,0,0,0,0,0,0,0,0,0,0,0,0],"id":14,"left_children":[1,3,5,7,9,11,13,15,17,19,21,23,25,27,29,31,33,35,37,39,41,43,45,47,49,51,53,55,57,59,61,63,65,67,69,71,73,75,77,79,81,83,85,87,89,91,93,95,97,99,-1,101,103,105,107,109,111,113,115,-1,117,-1,-1,-1,-1,-1,-1,-1,-1,-1,-1,-1,-1,-1,-1,-1,-1,-1,-1,-1,-1,-1,-1,-1,-1,-1,-1,-1,-1,-1,-1,-1,-1,-1,-1,-1,-1,-1,-1,-1,-1,-1,-1,-1,-1,-1,-1,-1,-1,-1,-1,-1,-1,-1,-1,-1,-1,-1,-1],"loss_changes":[8.413235E6,8.44152E5,1.324029E6,1.512075E5,1.6157462E5,1.4492577E5,1.926045E5,5.5040875E4,8.385525E4,9.22765E4,4.2104844E4,2.6400629E4,1.7929031E4,1.87675E4,2.7923E4,1.3694828E4,7.736719E4,8.642225E4,5.6319375E4,2.822686E4,8.0878875E4,6.530697E4,2.4463922E4,2.1653447E4,1.043198E4,1.0463797E4,5.8326562E3,4.4719688E3,4.00675E3,1.30375E3,3.115E3,4.544797E3,3.1333516E3,2.1726469E4,2.1039188E4,1.5467812E5,8.09565E4,4.3216062E4,5.9061938E4,2.776489E4,1.072473E4,7.149656E4,5.8203375E4,2.6250172E4,4.1830547E4,1.5329406E4,4.428303E4,1.9458664E4,3.0591676E4,8.702969E3,0E0,9.978508E3,2.684184E4,1.8157031E3,8.739844E3,3.8696094E2,7.4693125E3,5.2034375E2,5.7365E3,0E0,6.845625E2,0E0,0E0,0E0,0E0,0E0,0E0,0E0,0E0,0E0,0E0,0E0,0E0,0E0,0E0,0E0,0E0,0E0,0E0,0E0,0E0,0E0,0E0,0E0,0E0,0E0,0E0,0E0,0E0,0E0,0E0,0E0,0E0,0E0,0E0,0E0,0E0,0E0,0E0,0E0,0E0,0E0,0E0,0E0,0E0,0E0,0E0,0E0,0E0,0E0,0E0,0E0,0E0,0E0,0E0,0E0,0E0,0E0,0E0],"parents":[2147483647,0,0,1,1,2,2,3,3,4,4,5,5,6,6,7,7,8,8,9,9,10,10,11,11,12,12,13,13,14,14,15,15,16,16,17,17,18,18,19,19,20,20,21,21,22,22,23,23,24,24,25,25,26,26,27,27,28,28,29,29,30,30,31,31,32,32,33,33,34,34,35,35,36,36,37,37,38,38,39,39,40,40,41,41,42,42,43,43,44,44,45,45,46,46,47,47,48,48,49,49,51,51,52,52,53,53,54,54,55,55,56,56,57,57,58,58,60,60],"right_children":[2,4,6,8,10,12,14,16,18,20,22,24,26,28,30,32,34,36,38,40,42,44,46,48,50,52,54,56,58,60,62,64,66,68,70,72,74,76,78,80,82,84,86,88,90,92,94,96,98,100,-1,102,104,106,108,110,112,114,116,-1,118,-1,-1,-1,-1,-1,-1,-1,-1,-1,-1,-1,-1,-1,-1,-1,-1,-1,-1,-1,-1,-1,-1,-1,-1,-1,-1,-1,-1,-1,-1,-1,-1,-1,-1,-1,-1,-1,-1,-1,-1,-1,-1,-1,-1,-1,-1,-1,-1,-1,-1,-1,-1,-1,-1,-1,-1,-1,-1],"split_conditions":[-2.0827202E-1,-1.1657349E0,7.190863E-1,-1.6631962E0,-7.476501E-1,3.003922E-1,1.1890625E0,4.0816543E-1,-4.8519456E-1,3.8334635E-1,-4.8647535E-1,-5.2470844E-3,5.159279E-1,9.3419516E-1,1.4443893E0,3.62825E-1,-6.7772275E-1,9.1635543E-1,-1.0274532E0,9.761425E-1,8.105878E-1,4.1327304E-1,-4.816986E-1,1.8637608E-1,7.458254E-1,2.6405802E-1,-5.4196775E-1,-2.4274299E-1,-3.2396597E-1,-2.9979786E-1,1.5812365E0,8.217737E-2,-7.1578586E-1,5.457113E-1,6.081002E-1,-4.873651E-1,-4.4559422E-1,-7.806E-1,-1.4529468E0,-2.8480121E-1,-3.4865606E-1,-7.3287356E-1,-5.4196775E-1,1.0518816E0,-2.7950466E-1,4.9443033E-2,5.6143266E-1,-1.3686259E-2,-3.603442E-1,1.3874044E-1,1.8600577E0,-1.3194999E0,2.0205687E-1,-3.6383194E-1,5.796039E-1,7.6236343E-1,-3.469099E-2,-7.212951E-2,-4.518415E-1,-2.0806038E0,1.337715E0,-2.2143106E0,-2.4435308E0,2.235341E0,1.2426456E0,4.1248555E0,1.1454875E0,5.932615E0,2.8164933E0,3.2206495E0,5.864206E0,4.5326624E0,2.266999E0,2.0099053E0,7.118244E0,4.9487076E0,2.153132E0,6.110208E0,1.4568998E0,2.6993078E-1,1.0359479E0,4.1141577E0,4.8171607E-1,3.2046812E0,1.6831656E0,1.1258632E0,2.5119512E0,2.4477963E0,3.723684E-1,1.431122E0,5.8560365E-1,1.4277176E0,-3.808462E-1,4.2626926E-1,1.874354E0,-1.9240002E-1,8.972508E-1,8.839466E-1,-5.5210497E-2,-2.8199458E-1,-6.858157E-1,1.0394061E0,-7.575674E-1,1.0168098E0,-5.6214607E-1,-1.1170903E0,-1.58113E0,-7.912216E-1,-1.2245065E0,-1.6470972E0,-1.1096476E0,-8.4488165E-1,-1.2745368E0,-1.7833815E0,-1.1641263E0,-8.4201235E-1,-1.5405844E0,-1.813887E0,-1.9969391E0],"split_indices":[24,24,24,24,24,24,24,134,94,170,131,144,24,24,24,130,147,134,98,134,167,167,130,154,135,122,95,146,123,122,24,167,11,167,135,119,131,95,147,102,11,95,95,135,143,134,114,147,99,24,0,170,143,131,95,170,146,170,143,0,24,0,0,0,0,0,0,0,0,0,0,0,0,0,0,0,0,0,0,0,0,0,0,0,0,0,0,0,0,0,0,0,0,0,0,0,0,0,0,0,0,0,0,0,0,0,0,0,0,0,0,0,0,0,0,0,0,0,0],"split_type":[0,0,0,0,0,0,0,0,0,0,0,0,0,0,0,0,0,0,0,0,0,0,0,0,0,0,0,0,0,0,0,0,0,0,0,0,0,0,0,0,0,0,0,0,0,0,0,0,0,0,0,0,0,0,0,0,0,0,0,0,0,0,0,0,0,0,0,0,0,0,0,0,0,0,0,0,0,0,0,0,0,0,0,0,0,0,0,0,0,0,0,0,0,0,0,0,0,0,0,0,0,0,0,0,0,0,0,0,0,0,0,0,0,0,0,0,0,0,0],"sum_hessian":[1.2592E4,5.551E3,7.041E3,2.089E3,3.462E3,3.381E3,3.66E3,2.39E2,1.85E3,1.516E3,1.946E3,1.845E3,1.536E3,1.723E3,1.937E3,7.1E1,1.68E2,1.135E3,7.15E2,5.46E2,9.7E2,1.019E3,9.27E2,1.279E3,5.66E2,7.93E2,7.43E2,8.07E2,9.16E2,9.26E2,1.011E3,5.9E1,1.2E1,1.05E2,6.3E1,3.47E2,7.88E2,7.1E1,6.44E2,5.35E2,1.1E1,3.31E2,6.39E2,1.04E2,9.15E2,1.31E2,7.96E2,9.17E2,3.62E2,5.62E2,4E0,5.92E2,2.01E2,1.23E2,6.2E2,9.4E1,7.13E2,2.64E2,6.52E2,2.68E2,6.58E2,4.73E2,5.38E2,3.4E1,2.5E1,1E1,2E0,6E0,9.9E1,1.4E1,4.9E1,1.14E2,2.33E2,7.81E2,7E0,2E1,5.1E1,6E0,6.38E2,1.78E2,3.57E2,8E0,3E0,1.3E2,2.01E2,5.51E2,8.8E1,